network unknown{}
variable alcoholism {
type discrete [ 2 ] { absent, present };
}
variable vh_amn {
type discrete [ 2 ] { absent, present };
}
variable hepatotoxic {
type discrete [ 2 ] { absent, present };
}
variable THepatitis {
type discrete [ 2 ] { absent, present };
}
variable hospital {
type discrete [ 2 ] { absent, present };
}
variable surgery {
type discrete [ 2 ] { absent, present };
}
variable gallstones {
type discrete [ 2 ] { absent, present };
}
variable choledocholithotomy {
type discrete [ 2 ] { absent, present };
}
variable injections {
type discrete [ 2 ] { absent, present };
}
variable transfusion {
type discrete [ 2 ] { absent, present };
}
variable ChHepatitis {
type discrete [ 3 ] { absent, persistent, active };
}
variable sex {
type discrete [ 2 ] { male, female };
}
variable age {
type discrete [ 4 ] { age0_30, age31_50, age51_65, age65_100 };
}
variable PBC {
type discrete [ 2 ] { absent, present };
}
variable fibrosis {
type discrete [ 2 ] { absent, present };
}
variable diabetes {
type discrete [ 2 ] { absent, present };
}
variable obesity {
type discrete [ 2 ] { absent, present };
}
variable Steatosis {
type discrete [ 2 ] { absent, present };
}
variable Cirrhosis {
type discrete [ 3 ] { absent, compensate, decompensate };
}
variable Hyperbilirubinemia {
type discrete [ 2 ] { absent, present };
}
variable triglycerides {
type discrete [ 3 ] { a1_0, a3_2, a17_4 };
}
variable RHepatitis {
type discrete [ 2 ] { absent, present };
}
variable fatigue {
type discrete [ 2 ] { absent, present };
}
variable bilirubin {
type discrete [ 4 ] { a1_0, a6_2, a19_7, a88_20 };
}
variable itching {
type discrete [ 2 ] { absent, present };
}
variable upper_pain {
type discrete [ 2 ] { absent, present };
}
variable fat {
type discrete [ 2 ] { absent, present };
}
variable pain_ruq {
type discrete [ 2 ] { absent, present };
}
variable pressure_ruq {
type discrete [ 2 ] { absent, present };
}
variable phosphatase {
type discrete [ 3 ] { a239_0, a699_240, a4000_700 };
}
variable skin {
type discrete [ 2 ] { absent, present };
}
variable ama {
type discrete [ 2 ] { absent, present };
}
variable le_cells {
type discrete [ 2 ] { absent, present };
}
variable joints {
type discrete [ 2 ] { absent, present };
}
variable pain {
type discrete [ 2 ] { absent, present };
}
variable proteins {
type discrete [ 2 ] { a5_2, a10_6 };
}
variable edema {
type discrete [ 2 ] { absent, present };
}
variable platelet {
type discrete [ 4 ] { a99_0, a149_100, a299_150, a597_300 };
}
variable inr {
type discrete [ 3 ] { a69_0, a109_70, a200_110 };
}
variable bleeding {
type discrete [ 2 ] { absent, present };
}
variable flatulence {
type discrete [ 2 ] { absent, present };
}
variable alcohol {
type discrete [ 2 ] { absent, present };
}
variable encephalopathy {
type discrete [ 2 ] { absent, present };
}
variable urea {
type discrete [ 3 ] { a39_0, a49_40, a165_50 };
}
variable ascites {
type discrete [ 2 ] { absent, present };
}
variable hepatomegaly {
type discrete [ 2 ] { absent, present };
}
variable hepatalgia {
type discrete [ 2 ] { absent, present };
}
variable density {
type discrete [ 2 ] { absent, present };
}
variable ESR {
type discrete [ 3 ] { a14_0, a49_15, a200_50 };
}
variable alt {
type discrete [ 4 ] { a34_0, a99_35, a199_100, a850_200 };
}
variable ast {
type discrete [ 4 ] { a39_0, a149_40, a399_150, a700_400 };
}
variable amylase {
type discrete [ 3 ] { a299_0, a499_300, a1400_500 };
}
variable ggtp {
type discrete [ 4 ] { a9_0, a29_10, a69_30, a640_70 };
}
variable cholesterol {
type discrete [ 3 ] { a239_0, a349_240, a999_350 };
}
variable hbsag {
type discrete [ 2 ] { absent, present };
}
variable hbsag_anti {
type discrete [ 2 ] { absent, present };
}
variable anorexia {
type discrete [ 2 ] { absent, present };
}
variable nausea {
type discrete [ 2 ] { absent, present };
}
variable spleen {
type discrete [ 2 ] { absent, present };
}
variable consciousness {
type discrete [ 2 ] { absent, present };
}
variable spiders {
type discrete [ 2 ] { absent, present };
}
variable jaundice {
type discrete [ 2 ] { absent, present };
}
variable albumin {
type discrete [ 3 ] { a29_0, a49_30, a70_50 };
}
variable edge {
type discrete [ 2 ] { absent, present };
}
variable irregular_liver {
type discrete [ 2 ] { absent, present };
}
variable hbc_anti {
type discrete [ 2 ] { absent, present };
}
variable hcv_anti {
type discrete [ 2 ] { absent, present };
}
variable palms {
type discrete [ 2 ] { absent, present };
}
variable hbeag {
type discrete [ 2 ] { absent, present };
}
variable carcinoma {
type discrete [ 2 ] { absent, present };
}
probability ( alcoholism ) {
(absent) 1.43095;
(present) 0.698834;
}
probability ( vh_amn ) {
(absent) 1.03802;
(present) 0.963371;
}
probability ( hepatotoxic ) {
(absent) 1.69938;
(present) 0.58845;
}
probability ( alcoholism, hepatotoxic, THepatitis ) {
(absent, absent, absent) 1.97905;
(absent, absent, present) 0.903618;
(absent, present, absent) 1.0109;
(absent, present, present) 0.791551;
(present, absent, absent) 1.02517;
(present, absent, present) 0.926949;
(present, present, absent) 0.807325;
(present, present, present) 0.910912;
}
probability ( hospital ) {
(absent) 0.905416;
(present) 1.10446;
}
probability ( surgery ) {
(absent) 0.92157;
(present) 1.08511;
}
probability ( gallstones ) {
(absent) 0.999133;
(present) 1.00087;
}
probability ( gallstones, choledocholithotomy ) {
(absent, absent) 2.98326;
(absent, present) 0.334913;
(present, absent) 0.628775;
(present, present) 1.59177;
}
probability ( choledocholithotomy, surgery, hospital, injections ) {
(absent, absent, absent, absent) 1.83862;
(absent, absent, absent, present) 0.536526;
(absent, absent, present, absent) 1.03037;
(absent, absent, present, present) 1.19584;
(absent, present, absent, absent) 1.50558;
(absent, present, absent, present) 0.79184;
(absent, present, present, absent) 0.765214;
(absent, present, present, present) 1.69166;
(present, absent, absent, absent) 1.1513;
(present, absent, absent, present) 0.788025;
(present, absent, present, absent) 0.763363;
(present, absent, present, present) 1.09476;
(present, present, absent, absent) 0.935002;
(present, present, absent, present) 0.907575;
(present, present, present, absent) 0.799921;
(present, present, present, present) 1.03584;
}
probability ( choledocholithotomy, surgery, hospital, transfusion ) {
(absent, absent, absent, absent) 1.92886;
(absent, absent, absent, present) 0.511427;
(absent, absent, present, absent) 1.80607;
(absent, absent, present, present) 0.682231;
(absent, present, absent, absent) 1.20589;
(absent, present, absent, present) 0.988628;
(absent, present, present, absent) 1.29352;
(absent, present, present, present) 1.00074;
(present, absent, absent, absent) 1.10937;
(present, absent, absent, present) 0.817809;
(present, absent, present, absent) 0.994527;
(present, absent, present, present) 0.840295;
(present, present, absent, absent) 1.0151;
(present, present, absent, present) 0.835962;
(present, present, present, absent) 0.894793;
(present, present, present, present) 0.926015;
}
probability ( injections, vh_amn, transfusion, ChHepatitis ) {
(absent, absent, absent, absent) 1.51483;
(absent, absent, absent, persistent) 1.19371;
(absent, absent, absent, active) 1.50721;
(absent, absent, present, absent) 0.57652;
(absent, absent, present, persistent) 0.962303;
(absent, absent, present, active) 0.880675;
(absent, present, absent, absent) 1.20485;
(absent, present, absent, persistent) 1.04012;
(absent, present, absent, active) 1.14288;
(absent, present, present, absent) 0.777524;
(absent, present, present, persistent) 0.991005;
(absent, present, present, active) 0.976263;
(present, absent, absent, absent) 1.3591;
(present, absent, absent, persistent) 0.91262;
(present, absent, absent, active) 1.03052;
(present, absent, present, absent) 0.659116;
(present, absent, present, persistent) 0.977181;
(present, absent, present, active) 0.946877;
(present, present, absent, absent) 1.14163;
(present, present, absent, persistent) 0.971716;
(present, present, absent, active) 0.983844;
(present, present, present, absent) 0.927381;
(present, present, present, persistent) 0.931777;
(present, present, present, active) 0.948113;
}
probability ( sex ) {
(male) 0.834025;
(female) 1.19901;
}
probability ( age ) {
(age0_30) 0.859217;
(age31_50) 1.43393;
(age51_65) 1.36028;
(age65_100) 0.59668;
}
probability ( age, sex, PBC ) {
(age0_30, male, absent) 1.20602;
(age0_30, male, present) 0.777149;
(age0_30, female, absent) 1.1216;
(age0_30, female, present) 0.817343;
(age31_50, male, absent) 1.50886;
(age31_50, male, present) 0.716173;
(age31_50, female, absent) 0.785915;
(age31_50, female, present) 1.68844;
(age51_65, male, absent) 1.40731;
(age51_65, male, present) 0.760755;
(age51_65, female, absent) 0.6425;
(age51_65, female, present) 1.97752;
(age65_100, male, absent) 0.81539;
(age65_100, male, present) 0.943305;
(age65_100, female, absent) 0.690051;
(age65_100, female, present) 1.1242;
}
probability ( ChHepatitis, fibrosis ) {
(absent, absent) 2.35122;
(absent, present) 0.330011;
(persistent, absent) 1.09925;
(persistent, present) 0.869733;
(active, absent) 1.16187;
(active, present) 1.16022;
}
probability ( diabetes ) {
(absent) 2.46466;
(present) 0.405735;
}
probability ( diabetes, obesity ) {
(absent, absent) 4.12331;
(absent, present) 0.597738;
(present, absent) 0.615089;
(present, present) 0.659637;
}
probability ( alcoholism, obesity, Steatosis ) {
(absent, absent, absent) 2.1695;
(absent, absent, present) 1.07888;
(absent, present, absent) 0.656382;
(absent, present, present) 0.9314;
(present, absent, absent) 0.924671;
(present, absent, present) 1.17183;
(present, present, absent) 0.72279;
(present, present, present) 0.8923;
}
probability ( Steatosis, fibrosis, Cirrhosis ) {
(absent, absent, absent) 2.52212;
(absent, absent, compensate) 0.90478;
(absent, absent, decompensate) 0.81676;
(absent, present, absent) 0.409656;
(absent, present, compensate) 1.07876;
(absent, present, decompensate) 1.1555;
(present, absent, absent) 1.03195;
(present, absent, compensate) 1.10393;
(present, absent, decompensate) 1.41432;
(present, present, absent) 0.790651;
(present, present, compensate) 0.891328;
(present, present, decompensate) 0.925376;
}
probability ( sex, age, Hyperbilirubinemia ) {
(male, age0_30, absent) 0.787301;
(male, age0_30, present) 1.19047;
(male, age31_50, absent) 1.20551;
(male, age31_50, present) 0.896386;
(male, age51_65, absent) 1.33459;
(male, age51_65, present) 0.802209;
(male, age65_100, absent) 0.901816;
(male, age65_100, present) 0.852904;
(female, age0_30, absent) 0.930078;
(female, age0_30, present) 0.985652;
(female, age31_50, absent) 1.59861;
(female, age31_50, present) 0.830076;
(female, age51_65, absent) 1.71278;
(female, age51_65, present) 0.741807;
(female, age65_100, absent) 0.904931;
(female, age65_100, present) 0.857251;
}
probability ( Steatosis, triglycerides ) {
(absent, a1_0) 6.58895;
(absent, a3_2) 0.400371;
(absent, a17_4) 0.360775;
(present, a1_0) 1.51626;
(present, a3_2) 0.818119;
(present, a17_4) 0.847024;
}
probability ( hepatotoxic, RHepatitis ) {
(absent, absent) 2.18616;
(absent, present) 0.777334;
(present, absent) 0.860015;
(present, present) 0.684232;
}
probability ( RHepatitis, THepatitis, ChHepatitis, fatigue ) {
(absent, absent, absent, absent) 0.925795;
(absent, absent, absent, present) 1.1431;
(absent, absent, persistent, absent) 1.05216;
(absent, absent, persistent, present) 1.12718;
(absent, absent, active, absent) 1.2052;
(absent, absent, active, present) 1.42231;
(absent, present, absent, absent) 0.898135;
(absent, present, absent, present) 1.07113;
(absent, present, persistent, absent) 0.961086;
(absent, present, persistent, present) 0.981845;
(absent, present, active, absent) 0.985181;
(absent, present, active, present) 0.977128;
(present, absent, absent, absent) 0.920751;
(present, absent, absent, present) 0.99549;
(present, absent, persistent, absent) 0.958872;
(present, absent, persistent, present) 0.985071;
(present, absent, active, absent) 0.946864;
(present, absent, active, present) 0.938809;
(present, present, absent, absent) 0.908011;
(present, present, absent, present) 0.915727;
(present, present, persistent, absent) 0.932602;
(present, present, persistent, present) 0.969788;
(present, present, active, absent) 0.945343;
(present, present, active, present) 0.972118;
}
probability ( ChHepatitis, gallstones, Cirrhosis, PBC, Hyperbilirubinemia, bilirubin ) {
(absent, absent, absent, absent, absent, a1_0) 1.60395;
(absent, absent, absent, absent, absent, a6_2) 0.798179;
(absent, absent, absent, absent, absent, a19_7) 0.702803;
(absent, absent, absent, absent, absent, a88_20) 0.760095;
(absent, absent, absent, absent, present, a1_0) 0.83606;
(absent, absent, absent, absent, present, a6_2) 1.15647;
(absent, absent, absent, absent, present, a19_7) 0.924906;
(absent, absent, absent, absent, present, a88_20) 0.953548;
(absent, absent, absent, present, absent, a1_0) 0.729129;
(absent, absent, absent, present, absent, a6_2) 1.48525;
(absent, absent, absent, present, absent, a19_7) 1.21385;
(absent, absent, absent, present, absent, a88_20) 0.886453;
(absent, absent, absent, present, present, a1_0) 0.852791;
(absent, absent, absent, present, present, a6_2) 0.957161;
(absent, absent, absent, present, present, a19_7) 0.984949;
(absent, absent, absent, present, present, a88_20) 0.978313;
(absent, absent, compensate, absent, absent, a1_0) 1.05963;
(absent, absent, compensate, absent, absent, a6_2) 0.999404;
(absent, absent, compensate, absent, absent, a19_7) 0.996018;
(absent, absent, compensate, absent, absent, a88_20) 0.995994;
(absent, absent, compensate, absent, present, a1_0) 0.987098;
(absent, absent, compensate, absent, present, a6_2) 0.998134;
(absent, absent, compensate, absent, present, a19_7) 0.987691;
(absent, absent, compensate, absent, present, a88_20) 0.993549;
(absent, absent, compensate, present, absent, a1_0) 1.01796;
(absent, absent, compensate, present, absent, a6_2) 1.01774;
(absent, absent, compensate, present, absent, a19_7) 1.00755;
(absent, absent, compensate, present, absent, a88_20) 0.987898;
(absent, absent, compensate, present, present, a1_0) 0.995564;
(absent, absent, compensate, present, present, a6_2) 0.991919;
(absent, absent, compensate, present, present, a19_7) 0.985544;
(absent, absent, compensate, present, present, a88_20) 0.995566;
(absent, absent, decompensate, absent, absent, a1_0) 1.03013;
(absent, absent, decompensate, absent, absent, a6_2) 1.05287;
(absent, absent, decompensate, absent, absent, a19_7) 1.025;
(absent, absent, decompensate, absent, absent, a88_20) 0.997156;
(absent, absent, decompensate, absent, present, a1_0) 0.992544;
(absent, absent, decompensate, absent, present, a6_2) 1.00432;
(absent, absent, decompensate, absent, present, a19_7) 0.99946;
(absent, absent, decompensate, absent, present, a88_20) 1.00003;
(absent, absent, decompensate, present, absent, a1_0) 1.03445;
(absent, absent, decompensate, present, absent, a6_2) 1.03875;
(absent, absent, decompensate, present, absent, a19_7) 1.01945;
(absent, absent, decompensate, present, absent, a88_20) 0.9966;
(absent, absent, decompensate, present, present, a1_0) 0.980754;
(absent, absent, decompensate, present, present, a6_2) 1.00042;
(absent, absent, decompensate, present, present, a19_7) 0.9955;
(absent, absent, decompensate, present, present, a88_20) 1.00011;
(absent, present, absent, absent, absent, a1_0) 1.29137;
(absent, present, absent, absent, absent, a6_2) 0.886341;
(absent, present, absent, absent, absent, a19_7) 0.943882;
(absent, present, absent, absent, absent, a88_20) 0.921831;
(absent, present, absent, absent, present, a1_0) 1.0174;
(absent, present, absent, absent, present, a6_2) 0.985183;
(absent, present, absent, absent, present, a19_7) 0.997719;
(absent, present, absent, absent, present, a88_20) 1.00571;
(absent, present, absent, present, absent, a1_0) 0.950623;
(absent, present, absent, present, absent, a6_2) 1.15343;
(absent, present, absent, present, absent, a19_7) 1.1269;
(absent, present, absent, present, absent, a88_20) 1.02563;
(absent, present, absent, present, present, a1_0) 0.991649;
(absent, present, absent, present, present, a6_2) 0.993581;
(absent, present, absent, present, present, a19_7) 1.00455;
(absent, present, absent, present, present, a88_20) 0.998327;
(absent, present, compensate, absent, absent, a1_0) 1.0008;
(absent, present, compensate, absent, absent, a6_2) 1.00553;
(absent, present, compensate, absent, absent, a19_7) 1.00057;
(absent, present, compensate, absent, absent, a88_20) 0.994615;
(absent, present, compensate, absent, present, a1_0) 0.996602;
(absent, present, compensate, absent, present, a6_2) 0.997775;
(absent, present, compensate, absent, present, a19_7) 0.99662;
(absent, present, compensate, absent, present, a88_20) 0.993662;
(absent, present, compensate, present, absent, a1_0) 1.0014;
(absent, present, compensate, present, absent, a6_2) 1.00356;
(absent, present, compensate, present, absent, a19_7) 1.00235;
(absent, present, compensate, present, absent, a88_20) 0.993519;
(absent, present, compensate, present, present, a1_0) 0.99565;
(absent, present, compensate, present, present, a6_2) 0.99565;
(absent, present, compensate, present, present, a19_7) 0.997487;
(absent, present, compensate, present, present, a88_20) 0.994259;
(absent, present, decompensate, absent, absent, a1_0) 1.02446;
(absent, present, decompensate, absent, absent, a6_2) 0.989557;
(absent, present, decompensate, absent, absent, a19_7) 1.00096;
(absent, present, decompensate, absent, absent, a88_20) 0.992895;
(absent, present, decompensate, absent, present, a1_0) 0.99522;
(absent, present, decompensate, absent, present, a6_2) 0.99727;
(absent, present, decompensate, absent, present, a19_7) 0.994722;
(absent, present, decompensate, absent, present, a88_20) 0.998615;
(absent, present, decompensate, present, absent, a1_0) 1.00731;
(absent, present, decompensate, present, absent, a6_2) 1.00495;
(absent, present, decompensate, present, absent, a19_7) 1.00381;
(absent, present, decompensate, present, absent, a88_20) 0.999394;
(absent, present, decompensate, present, present, a1_0) 0.997771;
(absent, present, decompensate, present, present, a6_2) 0.992012;
(absent, present, decompensate, present, present, a19_7) 0.999224;
(absent, present, decompensate, present, present, a88_20) 1.0001;
(persistent, absent, absent, absent, absent, a1_0) 1.17708;
(persistent, absent, absent, absent, absent, a6_2) 0.979211;
(persistent, absent, absent, absent, absent, a19_7) 0.971219;
(persistent, absent, absent, absent, absent, a88_20) 0.980083;
(persistent, absent, absent, absent, present, a1_0) 1.00104;
(persistent, absent, absent, absent, present, a6_2) 1.00306;
(persistent, absent, absent, absent, present, a19_7) 0.997445;
(persistent, absent, absent, absent, present, a88_20) 0.992953;
(persistent, absent, absent, present, absent, a1_0) 1.04828;
(persistent, absent, absent, present, absent, a6_2) 1.02281;
(persistent, absent, absent, present, absent, a19_7) 1.01812;
(persistent, absent, absent, present, absent, a88_20) 0.990222;
(persistent, absent, absent, present, present, a1_0) 0.99395;
(persistent, absent, absent, present, present, a6_2) 0.983732;
(persistent, absent, absent, present, present, a19_7) 0.998313;
(persistent, absent, absent, present, present, a88_20) 0.99203;
(persistent, absent, compensate, absent, absent, a1_0) 1.00344;
(persistent, absent, compensate, absent, absent, a6_2) 1.00098;
(persistent, absent, compensate, absent, absent, a19_7) 1.0001;
(persistent, absent, compensate, absent, absent, a88_20) 1.00014;
(persistent, absent, compensate, absent, present, a1_0) 0.9993;
(persistent, absent, compensate, absent, present, a6_2) 0.998024;
(persistent, absent, compensate, absent, present, a19_7) 0.997703;
(persistent, absent, compensate, absent, present, a88_20) 1.00001;
(persistent, absent, compensate, present, absent, a1_0) 0.998433;
(persistent, absent, compensate, present, absent, a6_2) 0.999524;
(persistent, absent, compensate, present, absent, a19_7) 0.998815;
(persistent, absent, compensate, present, absent, a88_20) 0.993376;
(persistent, absent, compensate, present, present, a1_0) 0.997573;
(persistent, absent, compensate, present, present, a6_2) 0.997645;
(persistent, absent, compensate, present, present, a19_7) 0.997816;
(persistent, absent, compensate, present, present, a88_20) 0.998216;
(persistent, absent, decompensate, absent, absent, a1_0) 0.999284;
(persistent, absent, decompensate, absent, absent, a6_2) 1.00122;
(persistent, absent, decompensate, absent, absent, a19_7) 1.00054;
(persistent, absent, decompensate, absent, absent, a88_20) 0.997356;
(persistent, absent, decompensate, absent, present, a1_0) 0.999464;
(persistent, absent, decompensate, absent, present, a6_2) 0.994161;
(persistent, absent, decompensate, absent, present, a19_7) 0.996191;
(persistent, absent, decompensate, absent, present, a88_20) 0.991239;
(persistent, absent, decompensate, present, absent, a1_0) 1.00267;
(persistent, absent, decompensate, present, absent, a6_2) 0.997617;
(persistent, absent, decompensate, present, absent, a19_7) 0.992943;
(persistent, absent, decompensate, present, absent, a88_20) 0.997982;
(persistent, absent, decompensate, present, present, a1_0) 0.996688;
(persistent, absent, decompensate, present, present, a6_2) 0.990131;
(persistent, absent, decompensate, present, present, a19_7) 0.996136;
(persistent, absent, decompensate, present, present, a88_20) 0.988269;
(persistent, present, absent, absent, absent, a1_0) 1.0226;
(persistent, present, absent, absent, absent, a6_2) 0.975513;
(persistent, present, absent, absent, absent, a19_7) 0.996088;
(persistent, present, absent, absent, absent, a88_20) 0.999746;
(persistent, present, absent, absent, present, a1_0) 1.004;
(persistent, present, absent, absent, present, a6_2) 0.996614;
(persistent, present, absent, absent, present, a19_7) 0.998315;
(persistent, present, absent, absent, present, a88_20) 1.00007;
(persistent, present, absent, present, absent, a1_0) 1.00197;
(persistent, present, absent, present, absent, a6_2) 0.998513;
(persistent, present, absent, present, absent, a19_7) 1.00141;
(persistent, present, absent, present, absent, a88_20) 0.994034;
(persistent, present, absent, present, present, a1_0) 0.993597;
(persistent, present, absent, present, present, a6_2) 0.996957;
(persistent, present, absent, present, present, a19_7) 0.996959;
(persistent, present, absent, present, present, a88_20) 0.996405;
(persistent, present, compensate, absent, absent, a1_0) 0.999412;
(persistent, present, compensate, absent, absent, a6_2) 0.999786;
(persistent, present, compensate, absent, absent, a19_7) 0.999114;
(persistent, present, compensate, absent, absent, a88_20) 1.00001;
(persistent, present, compensate, absent, present, a1_0) 0.997046;
(persistent, present, compensate, absent, present, a6_2) 1.00007;
(persistent, present, compensate, absent, present, a19_7) 0.996805;
(persistent, present, compensate, absent, present, a88_20) 0.997703;
(persistent, present, compensate, present, absent, a1_0) 0.99721;
(persistent, present, compensate, present, absent, a6_2) 0.999494;
(persistent, present, compensate, present, absent, a19_7) 0.994555;
(persistent, present, compensate, present, absent, a88_20) 0.997958;
(persistent, present, compensate, present, present, a1_0) 0.998202;
(persistent, present, compensate, present, present, a6_2) 0.998116;
(persistent, present, compensate, present, present, a19_7) 0.997916;
(persistent, present, compensate, present, present, a88_20) 0.999214;
(persistent, present, decompensate, absent, absent, a1_0) 1.00172;
(persistent, present, decompensate, absent, absent, a6_2) 0.998477;
(persistent, present, decompensate, absent, absent, a19_7) 0.999174;
(persistent, present, decompensate, absent, absent, a88_20) 0.99612;
(persistent, present, decompensate, absent, present, a1_0) 0.996203;
(persistent, present, decompensate, absent, present, a6_2) 0.998771;
(persistent, present, decompensate, absent, present, a19_7) 1.00004;
(persistent, present, decompensate, absent, present, a88_20) 0.991437;
(persistent, present, decompensate, present, absent, a1_0) 0.99658;
(persistent, present, decompensate, present, absent, a6_2) 0.995835;
(persistent, present, decompensate, present, absent, a19_7) 0.998733;
(persistent, present, decompensate, present, absent, a88_20) 0.994102;
(persistent, present, decompensate, present, present, a1_0) 0.998615;
(persistent, present, decompensate, present, present, a6_2) 0.993052;
(persistent, present, decompensate, present, present, a19_7) 1;
(persistent, present, decompensate, present, present, a88_20) 0.996022;
(active, absent, absent, absent, absent, a1_0) 1.18725;
(active, absent, absent, absent, absent, a6_2) 1.03145;
(active, absent, absent, absent, absent, a19_7) 0.980585;
(active, absent, absent, absent, absent, a88_20) 0.966253;
(active, absent, absent, absent, present, a1_0) 0.997691;
(active, absent, absent, absent, present, a6_2) 0.996163;
(active, absent, absent, absent, present, a19_7) 0.991122;
(active, absent, absent, absent, present, a88_20) 0.984478;
(active, absent, absent, present, absent, a1_0) 1.01488;
(active, absent, absent, present, absent, a6_2) 1.03802;
(active, absent, absent, present, absent, a19_7) 1.03497;
(active, absent, absent, present, absent, a88_20) 0.983921;
(active, absent, absent, present, present, a1_0) 0.95832;
(active, absent, absent, present, present, a6_2) 0.990072;
(active, absent, absent, present, present, a19_7) 0.995048;
(active, absent, absent, present, present, a88_20) 0.993372;
(active, absent, compensate, absent, absent, a1_0) 1.0544;
(active, absent, compensate, absent, absent, a6_2) 1.00802;
(active, absent, compensate, absent, absent, a19_7) 0.999104;
(active, absent, compensate, absent, absent, a88_20) 1.00068;
(active, absent, compensate, absent, present, a1_0) 1.00202;
(active, absent, compensate, absent, present, a6_2) 1.00126;
(active, absent, compensate, absent, present, a19_7) 0.990117;
(active, absent, compensate, absent, present, a88_20) 0.997617;
(active, absent, compensate, present, absent, a1_0) 1.02009;
(active, absent, compensate, present, absent, a6_2) 1.01238;
(active, absent, compensate, present, absent, a19_7) 1.00183;
(active, absent, compensate, present, absent, a88_20) 0.99967;
(active, absent, compensate, present, present, a1_0) 0.999358;
(active, absent, compensate, present, present, a6_2) 1.00046;
(active, absent, compensate, present, present, a19_7) 0.996701;
(active, absent, compensate, present, present, a88_20) 0.999114;
(active, absent, decompensate, absent, absent, a1_0) 1.08585;
(active, absent, decompensate, absent, absent, a6_2) 1.03013;
(active, absent, decompensate, absent, absent, a19_7) 1.0115;
(active, absent, decompensate, absent, absent, a88_20) 0.997302;
(active, absent, decompensate, absent, present, a1_0) 0.997894;
(active, absent, decompensate, absent, present, a6_2) 0.995154;
(active, absent, decompensate, absent, present, a19_7) 0.998373;
(active, absent, decompensate, absent, present, a88_20) 0.999514;
(active, absent, decompensate, present, absent, a1_0) 1.0361;
(active, absent, decompensate, present, absent, a6_2) 1.03494;
(active, absent, decompensate, present, absent, a19_7) 1.01207;
(active, absent, decompensate, present, absent, a88_20) 0.997798;
(active, absent, decompensate, present, present, a1_0) 0.996145;
(active, absent, decompensate, present, present, a6_2) 1.00127;
(active, absent, decompensate, present, present, a19_7) 0.997725;
(active, absent, decompensate, present, present, a88_20) 1.00004;
(active, present, absent, absent, absent, a1_0) 1.04004;
(active, present, absent, absent, absent, a6_2) 1.00837;
(active, present, absent, absent, absent, a19_7) 0.996857;
(active, present, absent, absent, absent, a88_20) 0.993048;
(active, present, absent, absent, present, a1_0) 0.9916;
(active, present, absent, absent, present, a6_2) 0.984641;
(active, present, absent, absent, present, a19_7) 0.99783;
(active, present, absent, absent, present, a88_20) 0.99823;
(active, present, absent, present, absent, a1_0) 0.98825;
(active, present, absent, present, absent, a6_2) 1.01596;
(active, present, absent, present, absent, a19_7) 1.00705;
(active, present, absent, present, absent, a88_20) 0.993897;
(active, present, absent, present, present, a1_0) 0.988175;
(active, present, absent, present, present, a6_2) 0.998697;
(active, present, absent, present, present, a19_7) 0.998651;
(active, present, absent, present, present, a88_20) 1.00007;
(active, present, compensate, absent, absent, a1_0) 1.00371;
(active, present, compensate, absent, absent, a6_2) 1.00236;
(active, present, compensate, absent, absent, a19_7) 0.995488;
(active, present, compensate, absent, absent, a88_20) 0.995038;
(active, present, compensate, absent, present, a1_0) 1.00041;
(active, present, compensate, absent, present, a6_2) 0.989842;
(active, present, compensate, absent, present, a19_7) 0.979065;
(active, present, compensate, absent, present, a88_20) 0.989159;
(active, present, compensate, present, absent, a1_0) 1.00054;
(active, present, compensate, present, absent, a6_2) 1.00276;
(active, present, compensate, present, absent, a19_7) 0.998523;
(active, present, compensate, present, absent, a88_20) 0.997114;
(active, present, compensate, present, present, a1_0) 0.996859;
(active, present, compensate, present, present, a6_2) 0.996504;
(active, present, compensate, present, present, a19_7) 0.997132;
(active, present, compensate, present, present, a88_20) 0.996108;
(active, present, decompensate, absent, absent, a1_0) 1.00618;
(active, present, decompensate, absent, absent, a6_2) 0.99313;
(active, present, decompensate, absent, absent, a19_7) 0.993611;
(active, present, decompensate, absent, absent, a88_20) 1.00073;
(active, present, decompensate, absent, present, a1_0) 0.997354;
(active, present, decompensate, absent, present, a6_2) 0.994012;
(active, present, decompensate, absent, present, a19_7) 0.986062;
(active, present, decompensate, absent, present, a88_20) 0.992981;
(active, present, decompensate, present, absent, a1_0) 1.00532;
(active, present, decompensate, present, absent, a6_2) 1.00694;
(active, present, decompensate, present, absent, a19_7) 1.00126;
(active, present, decompensate, present, absent, a88_20) 0.994999;
(active, present, decompensate, present, present, a1_0) 0.99797;
(active, present, decompensate, present, present, a6_2) 0.998713;
(active, present, decompensate, present, present, a19_7) 1.00004;
(active, present, decompensate, present, present, a88_20) 0.997802;
}
probability ( bilirubin, itching ) {
(a1_0, absent) 1.99374;
(a1_0, present) 1.00786;
(a6_2, absent) 1.14686;
(a6_2, present) 1.30943;
(a19_7, absent) 0.734506;
(a19_7, present) 1.0353;
(a88_20, absent) 0.606972;
(a88_20, present) 0.717975;
}
probability ( gallstones, upper_pain ) {
(absent, absent) 1.29802;
(absent, present) 0.769737;
(present, absent) 1.14219;
(present, present) 0.876267;
}
probability ( gallstones, fat ) {
(absent, absent) 1.44721;
(absent, present) 0.690385;
(present, absent) 1.51306;
(present, present) 0.661486;
}
probability ( Hyperbilirubinemia, Steatosis, pain_ruq ) {
(absent, absent, absent) 1.47635;
(absent, absent, present) 1.13953;
(absent, present, absent) 1.24258;
(absent, present, present) 1.25928;
(present, absent, absent) 0.828314;
(present, absent, present) 0.682978;
(present, present, absent) 0.823447;
(present, present, present) 0.815463;
}
probability ( ChHepatitis, PBC, gallstones, pressure_ruq ) {
(absent, absent, absent, absent) 0.864702;
(absent, absent, absent, present) 0.756606;
(absent, absent, present, absent) 1.15712;
(absent, absent, present, present) 0.847991;
(absent, present, absent, absent) 1.31624;
(absent, present, absent, present) 0.741954;
(absent, present, present, absent) 1.25802;
(absent, present, present, present) 0.983813;
(persistent, absent, absent, absent) 1.0819;
(persistent, absent, absent, present) 0.987619;
(persistent, absent, present, absent) 1.00716;
(persistent, absent, present, present) 0.957965;
(persistent, present, absent, absent) 1.05803;
(persistent, present, absent, present) 0.935102;
(persistent, present, present, absent) 0.968943;
(persistent, present, present, present) 0.967392;
(active, absent, absent, absent) 1.18864;
(active, absent, absent, present) 1.11466;
(active, absent, present, absent) 0.968228;
(active, absent, present, present) 0.961226;
(active, present, absent, absent) 1.12774;
(active, present, absent, present) 0.99;
(active, present, present, absent) 1.00941;
(active, present, present, present) 0.970032;
}
probability ( ChHepatitis, Cirrhosis, THepatitis, RHepatitis, phosphatase ) {
(absent, absent, absent, absent, a239_0) 1.26731;
(absent, absent, absent, absent, a699_240) 0.980643;
(absent, absent, absent, absent, a4000_700) 0.632436;
(absent, absent, absent, present, a239_0) 1.12097;
(absent, absent, absent, present, a699_240) 0.950232;
(absent, absent, absent, present, a4000_700) 0.89137;
(absent, absent, present, absent, a239_0) 1.17827;
(absent, absent, present, absent, a699_240) 0.944171;
(absent, absent, present, absent, a4000_700) 0.910449;
(absent, absent, present, present, a239_0) 0.963324;
(absent, absent, present, present, a699_240) 0.966949;
(absent, absent, present, present, a4000_700) 0.952191;
(absent, compensate, absent, absent, a239_0) 1.07644;
(absent, compensate, absent, absent, a699_240) 1.02064;
(absent, compensate, absent, absent, a4000_700) 0.995548;
(absent, compensate, absent, present, a239_0) 0.992667;
(absent, compensate, absent, present, a699_240) 0.988784;
(absent, compensate, absent, present, a4000_700) 0.992228;
(absent, compensate, present, absent, a239_0) 0.990395;
(absent, compensate, present, absent, a699_240) 0.982707;
(absent, compensate, present, absent, a4000_700) 0.991752;
(absent, compensate, present, present, a239_0) 0.986885;
(absent, compensate, present, present, a699_240) 0.983803;
(absent, compensate, present, present, a4000_700) 0.986506;
(absent, decompensate, absent, absent, a239_0) 1.12886;
(absent, decompensate, absent, absent, a699_240) 1.11846;
(absent, decompensate, absent, absent, a4000_700) 0.974998;
(absent, decompensate, absent, present, a239_0) 1.00173;
(absent, decompensate, absent, present, a699_240) 1.00138;
(absent, decompensate, absent, present, a4000_700) 0.988163;
(absent, decompensate, present, absent, a239_0) 1.00524;
(absent, decompensate, present, absent, a699_240) 0.992737;
(absent, decompensate, present, absent, a4000_700) 0.986035;
(absent, decompensate, present, present, a239_0) 0.995701;
(absent, decompensate, present, present, a699_240) 0.988422;
(absent, decompensate, present, present, a4000_700) 0.994515;
(persistent, absent, absent, absent, a239_0) 1.36205;
(persistent, absent, absent, absent, a699_240) 0.967593;
(persistent, absent, absent, absent, a4000_700) 0.899673;
(persistent, absent, absent, present, a239_0) 0.99939;
(persistent, absent, absent, present, a699_240) 0.996995;
(persistent, absent, absent, present, a4000_700) 0.989478;
(persistent, absent, present, absent, a239_0) 1.01372;
(persistent, absent, present, absent, a699_240) 0.991998;
(persistent, absent, present, absent, a4000_700) 0.987866;
(persistent, absent, present, present, a239_0) 0.977924;
(persistent, absent, present, present, a699_240) 0.985912;
(persistent, absent, present, present, a4000_700) 0.992032;
(persistent, compensate, absent, absent, a239_0) 1.01123;
(persistent, compensate, absent, absent, a699_240) 0.994569;
(persistent, compensate, absent, absent, a4000_700) 0.997064;
(persistent, compensate, absent, present, a239_0) 0.997469;
(persistent, compensate, absent, present, a699_240) 0.992171;
(persistent, compensate, absent, present, a4000_700) 0.997603;
(persistent, compensate, present, absent, a239_0) 0.997477;
(persistent, compensate, present, absent, a699_240) 0.979145;
(persistent, compensate, present, absent, a4000_700) 0.99803;
(persistent, compensate, present, present, a239_0) 0.998615;
(persistent, compensate, present, present, a699_240) 0.997304;
(persistent, compensate, present, present, a4000_700) 0.993322;
(persistent, decompensate, absent, absent, a239_0) 1.01865;
(persistent, decompensate, absent, absent, a699_240) 0.997074;
(persistent, decompensate, absent, absent, a4000_700) 0.982073;
(persistent, decompensate, absent, present, a239_0) 0.989106;
(persistent, decompensate, absent, present, a699_240) 0.989165;
(persistent, decompensate, absent, present, a4000_700) 0.991834;
(persistent, decompensate, present, absent, a239_0) 0.993853;
(persistent, decompensate, present, absent, a699_240) 0.996851;
(persistent, decompensate, present, absent, a4000_700) 0.983634;
(persistent, decompensate, present, present, a239_0) 0.983354;
(persistent, decompensate, present, present, a699_240) 0.984535;
(persistent, decompensate, present, present, a4000_700) 0.987296;
(active, absent, absent, absent, a239_0) 1.52553;
(active, absent, absent, absent, a699_240) 0.974304;
(active, absent, absent, absent, a4000_700) 0.826869;
(active, absent, absent, present, a239_0) 0.999452;
(active, absent, absent, present, a699_240) 0.975445;
(active, absent, absent, present, a4000_700) 0.976786;
(active, absent, present, absent, a239_0) 1.0259;
(active, absent, present, absent, a699_240) 0.988673;
(active, absent, present, absent, a4000_700) 0.987408;
(active, absent, present, present, a239_0) 0.989935;
(active, absent, present, present, a699_240) 0.982774;
(active, absent, present, present, a4000_700) 0.992782;
(active, compensate, absent, absent, a239_0) 1.07138;
(active, compensate, absent, absent, a699_240) 1.02769;
(active, compensate, absent, absent, a4000_700) 0.998591;
(active, compensate, absent, present, a239_0) 0.984366;
(active, compensate, absent, present, a699_240) 0.988831;
(active, compensate, absent, present, a4000_700) 0.992895;
(active, compensate, present, absent, a239_0) 1.00002;
(active, compensate, present, absent, a699_240) 0.990567;
(active, compensate, present, absent, a4000_700) 0.992764;
(active, compensate, present, present, a239_0) 0.996191;
(active, compensate, present, present, a699_240) 0.991379;
(active, compensate, present, present, a4000_700) 0.989767;
(active, decompensate, absent, absent, a239_0) 1.19147;
(active, decompensate, absent, absent, a699_240) 1.07249;
(active, decompensate, absent, absent, a4000_700) 0.992735;
(active, decompensate, absent, present, a239_0) 0.981776;
(active, decompensate, absent, present, a699_240) 0.990601;
(active, decompensate, absent, present, a4000_700) 0.993134;
(active, decompensate, present, absent, a239_0) 0.998711;
(active, decompensate, present, absent, a699_240) 0.990815;
(active, decompensate, present, absent, a4000_700) 0.987734;
(active, decompensate, present, present, a239_0) 0.992993;
(active, decompensate, present, present, a699_240) 0.986435;
(active, decompensate, present, present, a4000_700) 0.99372;
}
probability ( bilirubin, skin ) {
(a1_0, absent) 2.70651;
(a1_0, present) 0.742436;
(a6_2, absent) 0.901367;
(a6_2, present) 1.66607;
(a19_7, absent) 0.638126;
(a19_7, present) 1.19166;
(a88_20, absent) 0.608772;
(a88_20, present) 0.715852;
}
probability ( PBC, ama ) {
(absent, absent) 3.13362;
(absent, present) 0.260424;
(present, absent) 0.993677;
(present, present) 1.23318;
}
probability ( PBC, le_cells ) {
(absent, absent) 2.7831;
(absent, present) 0.293223;
(present, absent) 2.73655;
(present, present) 0.447785;
}
probability ( PBC, joints ) {
(absent, absent) 1.64203;
(absent, present) 0.496988;
(present, absent) 1.95993;
(present, present) 0.625218;
}
probability ( joints, PBC, pain ) {
(absent, absent, absent) 2.5865;
(absent, absent, present) 0.634848;
(absent, present, absent) 2.83447;
(absent, present, present) 0.691462;
(present, absent, absent) 0.548577;
(present, absent, present) 0.90596;
(present, present, absent) 0.8367;
(present, present, present) 0.747243;
}
probability ( Cirrhosis, proteins ) {
(absent, a5_2) 0.439809;
(absent, a10_6) 1.91674;
(compensate, a5_2) 0.851495;
(compensate, a10_6) 1.12788;
(decompensate, a5_2) 0.804658;
(decompensate, a10_6) 1.53503;
}
probability ( Cirrhosis, edema ) {
(absent, absent) 2.11359;
(absent, present) 0.398847;
(compensate, absent) 1.11133;
(compensate, present) 0.864171;
(decompensate, absent) 1.22306;
(decompensate, present) 1.00991;
}
probability ( PBC, Cirrhosis, platelet ) {
(absent, absent, a99_0) 0.624489;
(absent, absent, a149_100) 0.817314;
(absent, absent, a299_150) 1.85294;
(absent, absent, a597_300) 0.75977;
(absent, compensate, a99_0) 0.995514;
(absent, compensate, a149_100) 0.988054;
(absent, compensate, a299_150) 1.05336;
(absent, compensate, a597_300) 0.963004;
(absent, decompensate, a99_0) 1.02687;
(absent, decompensate, a149_100) 1.06209;
(absent, decompensate, a299_150) 1.10019;
(absent, decompensate, a597_300) 0.948624;
(present, absent, a99_0) 0.882803;
(present, absent, a149_100) 0.980558;
(present, absent, a299_150) 1.8083;
(present, absent, a597_300) 0.749485;
(present, compensate, a99_0) 0.975884;
(present, compensate, a149_100) 0.996704;
(present, compensate, a299_150) 1.02889;
(present, compensate, a597_300) 0.961782;
(present, decompensate, a99_0) 0.976935;
(present, decompensate, a149_100) 1.00508;
(present, decompensate, a299_150) 1.14721;
(present, decompensate, a597_300) 0.963341;
}
probability ( Hyperbilirubinemia, THepatitis, Cirrhosis, ChHepatitis, inr ) {
(absent, absent, absent, absent, a69_0) 0.626026;
(absent, absent, absent, absent, a109_70) 2.59567;
(absent, absent, absent, absent, a200_110) 0.617112;
(absent, absent, absent, persistent, a69_0) 0.941648;
(absent, absent, absent, persistent, a109_70) 1.28799;
(absent, absent, absent, persistent, a200_110) 0.982177;
(absent, absent, absent, active, a69_0) 0.927056;
(absent, absent, absent, active, a109_70) 1.65302;
(absent, absent, absent, active, a200_110) 0.849587;
(absent, absent, compensate, absent, a69_0) 1.04169;
(absent, absent, compensate, absent, a109_70) 1.09214;
(absent, absent, compensate, absent, a200_110) 0.974924;
(absent, absent, compensate, persistent, a69_0) 0.999164;
(absent, absent, compensate, persistent, a109_70) 1.00909;
(absent, absent, compensate, persistent, a200_110) 0.99712;
(absent, absent, compensate, active, a69_0) 1.01151;
(absent, absent, compensate, active, a109_70) 1.09949;
(absent, absent, compensate, active, a200_110) 0.995855;
(absent, absent, decompensate, absent, a69_0) 1.11877;
(absent, absent, decompensate, absent, a109_70) 1.16457;
(absent, absent, decompensate, absent, a200_110) 0.964488;
(absent, absent, decompensate, persistent, a69_0) 0.990238;
(absent, absent, decompensate, persistent, a109_70) 1.01089;
(absent, absent, decompensate, persistent, a200_110) 0.994169;
(absent, absent, decompensate, active, a69_0) 1.03591;
(absent, absent, decompensate, active, a109_70) 1.21957;
(absent, absent, decompensate, active, a200_110) 0.996173;
(absent, present, absent, absent, a69_0) 0.915459;
(absent, present, absent, absent, a109_70) 1.1945;
(absent, present, absent, absent, a200_110) 0.917242;
(absent, present, absent, persistent, a69_0) 0.981099;
(absent, present, absent, persistent, a109_70) 1.00634;
(absent, present, absent, persistent, a200_110) 0.997619;
(absent, present, absent, active, a69_0) 0.989395;
(absent, present, absent, active, a109_70) 1.01872;
(absent, present, absent, active, a200_110) 0.989608;
(absent, present, compensate, absent, a69_0) 0.994893;
(absent, present, compensate, absent, a109_70) 0.995291;
(absent, present, compensate, absent, a200_110) 0.988663;
(absent, present, compensate, persistent, a69_0) 0.995693;
(absent, present, compensate, persistent, a109_70) 0.990517;
(absent, present, compensate, persistent, a200_110) 0.990856;
(absent, present, compensate, active, a69_0) 0.991891;
(absent, present, compensate, active, a109_70) 0.999114;
(absent, present, compensate, active, a200_110) 0.996833;
(absent, present, decompensate, absent, a69_0) 1.00128;
(absent, present, decompensate, absent, a109_70) 0.988335;
(absent, present, decompensate, absent, a200_110) 0.995747;
(absent, present, decompensate, persistent, a69_0) 0.991473;
(absent, present, decompensate, persistent, a109_70) 0.99554;
(absent, present, decompensate, persistent, a200_110) 0.988212;
(absent, present, decompensate, active, a69_0) 0.990997;
(absent, present, decompensate, active, a109_70) 1.0004;
(absent, present, decompensate, active, a200_110) 0.981303;
(present, absent, absent, absent, a69_0) 0.796081;
(present, absent, absent, absent, a109_70) 1.1012;
(present, absent, absent, absent, a200_110) 0.848904;
(present, absent, absent, persistent, a69_0) 0.980144;
(present, absent, absent, persistent, a109_70) 1.00584;
(present, absent, absent, persistent, a200_110) 0.995401;
(present, absent, absent, active, a69_0) 0.957261;
(present, absent, absent, active, a109_70) 0.972465;
(present, absent, absent, active, a200_110) 0.96565;
(present, absent, compensate, absent, a69_0) 0.968904;
(present, absent, compensate, absent, a109_70) 0.996694;
(present, absent, compensate, absent, a200_110) 0.994523;
(present, absent, compensate, persistent, a69_0) 0.993334;
(present, absent, compensate, persistent, a109_70) 0.994905;
(present, absent, compensate, persistent, a200_110) 0.996462;
(present, absent, compensate, active, a69_0) 0.985755;
(present, absent, compensate, active, a109_70) 0.987169;
(present, absent, compensate, active, a200_110) 0.985952;
(present, absent, decompensate, absent, a69_0) 0.995725;
(present, absent, decompensate, absent, a109_70) 0.998381;
(present, absent, decompensate, absent, a200_110) 0.976803;
(present, absent, decompensate, persistent, a69_0) 0.993356;
(present, absent, decompensate, persistent, a109_70) 0.983512;
(present, absent, decompensate, persistent, a200_110) 0.995538;
(present, absent, decompensate, active, a69_0) 0.9923;
(present, absent, decompensate, active, a109_70) 0.987928;
(present, absent, decompensate, active, a200_110) 0.993116;
(present, present, absent, absent, a69_0) 0.978244;
(present, present, absent, absent, a109_70) 0.948151;
(present, present, absent, absent, a200_110) 0.965642;
(present, present, absent, persistent, a69_0) 0.99043;
(present, present, absent, persistent, a109_70) 0.987558;
(present, present, absent, persistent, a200_110) 0.986252;
(present, present, absent, active, a69_0) 0.992947;
(present, present, absent, active, a109_70) 0.991963;
(present, present, absent, active, a200_110) 0.984602;
(present, present, compensate, absent, a69_0) 0.988295;
(present, present, compensate, absent, a109_70) 0.969094;
(present, present, compensate, absent, a200_110) 0.986013;
(present, present, compensate, persistent, a69_0) 0.998401;
(present, present, compensate, persistent, a109_70) 0.993293;
(present, present, compensate, persistent, a200_110) 0.995013;
(present, present, compensate, active, a69_0) 0.992443;
(present, present, compensate, active, a109_70) 0.985514;
(present, present, compensate, active, a200_110) 0.994913;
(present, present, decompensate, absent, a69_0) 0.987149;
(present, present, decompensate, absent, a109_70) 0.992758;
(present, present, decompensate, absent, a200_110) 0.997346;
(present, present, decompensate, persistent, a69_0) 0.986394;
(present, present, decompensate, persistent, a109_70) 0.986701;
(present, present, decompensate, persistent, a200_110) 0.98118;
(present, present, decompensate, active, a69_0) 0.996831;
(present, present, decompensate, active, a109_70) 0.988111;
(present, present, decompensate, active, a200_110) 0.992826;
}
probability ( inr, platelet, bleeding ) {
(a69_0, a99_0, absent) 0.8538;
(a69_0, a99_0, present) 0.904418;
(a69_0, a149_100, absent) 0.871593;
(a69_0, a149_100, present) 0.822415;
(a69_0, a299_150, absent) 0.971854;
(a69_0, a299_150, present) 0.904183;
(a69_0, a597_300, absent) 0.868254;
(a69_0, a597_300, present) 0.854184;
(a109_70, a99_0, absent) 1.13075;
(a109_70, a99_0, present) 0.866289;
(a109_70, a149_100, absent) 2.1187;
(a109_70, a149_100, present) 0.764221;
(a109_70, a299_150, absent) 6.68563;
(a109_70, a299_150, present) 0.993287;
(a109_70, a597_300, absent) 1.31711;
(a109_70, a597_300, present) 0.717778;
(a200_110, a99_0, absent) 0.822996;
(a200_110, a99_0, present) 0.863102;
(a200_110, a149_100, absent) 0.861925;
(a200_110, a149_100, present) 0.842186;
(a200_110, a299_150, absent) 1.08251;
(a200_110, a299_150, present) 0.72558;
(a200_110, a597_300, absent) 0.826612;
(a200_110, a597_300, present) 0.831593;
}
probability ( gallstones, flatulence ) {
(absent, absent) 1.1422;
(absent, present) 0.874743;
(present, absent) 1.09364;
(present, present) 0.915171;
}
probability ( Cirrhosis, alcohol ) {
(absent, absent) 2.20633;
(absent, present) 0.382082;
(compensate, absent) 1.05428;
(compensate, present) 0.910936;
(decompensate, absent) 1.40261;
(decompensate, present) 0.880628;
}
probability ( PBC, Cirrhosis, encephalopathy ) {
(absent, absent, absent) 0.941057;
(absent, absent, present) 0.763554;
(absent, compensate, absent) 1.10912;
(absent, compensate, present) 0.899609;
(absent, decompensate, absent) 1.21572;
(absent, decompensate, present) 0.936283;
(present, absent, absent) 1.23863;
(present, absent, present) 0.947172;
(present, compensate, absent) 1.02635;
(present, compensate, present) 0.937811;
(present, decompensate, absent) 1.15943;
(present, decompensate, present) 0.935933;
}
probability ( encephalopathy, urea ) {
(absent, a39_0) 7.15777;
(absent, a49_40) 0.551122;
(absent, a165_50) 0.474115;
(present, a39_0) 0.929114;
(present, a49_40) 0.754048;
(present, a165_50) 0.763171;
}
probability ( proteins, ascites ) {
(a5_2, absent) 0.544393;
(a5_2, present) 0.553535;
(a10_6, absent) 4.70641;
(a10_6, present) 0.705103;
}
probability ( Hyperbilirubinemia, Steatosis, THepatitis, RHepatitis, hepatomegaly ) {
(absent, absent, absent, absent, absent) 1.00107;
(absent, absent, absent, absent, present) 1.90347;
(absent, absent, absent, present, absent) 0.938321;
(absent, absent, absent, present, present) 1.01427;
(absent, absent, present, absent, absent) 0.943896;
(absent, absent, present, absent, present) 1.11701;
(absent, absent, present, present, absent) 0.934824;
(absent, absent, present, present, present) 0.941211;
(absent, present, absent, absent, absent) 1.06759;
(absent, present, absent, absent, present) 1.63864;
(absent, present, absent, present, absent) 0.963864;
(absent, present, absent, present, present) 0.988542;
(absent, present, present, absent, absent) 0.980805;
(absent, present, present, absent, present) 0.99411;
(absent, present, present, present, absent) 0.979907;
(absent, present, present, present, present) 0.982521;
(present, absent, absent, absent, absent) 0.986277;
(present, absent, absent, absent, present) 0.741625;
(present, absent, absent, present, absent) 0.976024;
(present, absent, absent, present, present) 0.961374;
(present, absent, present, absent, absent) 0.958707;
(present, absent, present, absent, present) 0.959916;
(present, absent, present, present, absent) 0.95617;
(present, absent, present, present, present) 0.936723;
(present, present, absent, absent, absent) 0.918438;
(present, present, absent, absent, present) 0.960723;
(present, present, absent, present, absent) 0.963742;
(present, present, absent, present, present) 0.938518;
(present, present, present, absent, absent) 0.956849;
(present, present, present, absent, present) 0.965376;
(present, present, present, present, absent) 0.958266;
(present, present, present, present, present) 0.950523;
}
probability ( hepatomegaly, hepatalgia ) {
(absent, absent) 1.85218;
(absent, present) 0.316954;
(present, absent) 1.97288;
(present, present) 0.863415;
}
probability ( encephalopathy, density ) {
(absent, absent) 1.76658;
(absent, present) 1.05871;
(present, absent) 0.624411;
(present, present) 0.856287;
}
probability ( Hyperbilirubinemia, Steatosis, ChHepatitis, PBC, ESR ) {
(absent, absent, absent, absent, a14_0) 2.90094;
(absent, absent, absent, absent, a49_15) 0.45675;
(absent, absent, absent, absent, a200_50) 0.456998;
(absent, absent, absent, present, a14_0) 1.21794;
(absent, absent, absent, present, a49_15) 0.871544;
(absent, absent, absent, present, a200_50) 1.30053;
(absent, absent, persistent, absent, a14_0) 1.25422;
(absent, absent, persistent, absent, a49_15) 0.904256;
(absent, absent, persistent, absent, a200_50) 0.962459;
(absent, absent, persistent, present, a14_0) 1.04144;
(absent, absent, persistent, present, a49_15) 1.00632;
(absent, absent, persistent, present, a200_50) 1.01861;
(absent, absent, active, absent, a14_0) 1.57302;
(absent, absent, active, absent, a49_15) 1.0322;
(absent, absent, active, absent, a200_50) 0.874467;
(absent, absent, active, present, a14_0) 1.17704;
(absent, absent, active, present, a49_15) 0.965397;
(absent, absent, active, present, a200_50) 1.07048;
(absent, present, absent, absent, a14_0) 1.41419;
(absent, present, absent, absent, a49_15) 0.937;
(absent, present, absent, absent, a200_50) 0.997501;
(absent, present, absent, present, a14_0) 1.13241;
(absent, present, absent, present, a49_15) 1.01434;
(absent, present, absent, present, a200_50) 1.06556;
(absent, present, persistent, absent, a14_0) 1.01049;
(absent, present, persistent, absent, a49_15) 0.993136;
(absent, present, persistent, absent, a200_50) 0.991822;
(absent, present, persistent, present, a14_0) 0.997641;
(absent, present, persistent, present, a49_15) 0.974234;
(absent, present, persistent, present, a200_50) 0.99261;
(absent, present, active, absent, a14_0) 1.0289;
(absent, present, active, absent, a49_15) 0.98891;
(absent, present, active, absent, a200_50) 0.989979;
(absent, present, active, present, a14_0) 1.00685;
(absent, present, active, present, a49_15) 0.997782;
(absent, present, active, present, a200_50) 0.995349;
(present, absent, absent, absent, a14_0) 1.32305;
(present, absent, absent, absent, a49_15) 0.804124;
(present, absent, absent, absent, a200_50) 0.828719;
(present, absent, absent, present, a14_0) 0.921311;
(present, absent, absent, present, a49_15) 0.918392;
(present, absent, absent, present, a200_50) 0.914047;
(present, absent, persistent, absent, a14_0) 1.02795;
(present, absent, persistent, absent, a49_15) 0.974895;
(present, absent, persistent, absent, a200_50) 0.98313;
(present, absent, persistent, present, a14_0) 0.98385;
(present, absent, persistent, present, a49_15) 0.98663;
(present, absent, persistent, present, a200_50) 0.99136;
(present, absent, active, absent, a14_0) 1.01444;
(present, absent, active, absent, a49_15) 0.962787;
(present, absent, active, absent, a200_50) 0.959979;
(present, absent, active, present, a14_0) 0.975507;
(present, absent, active, present, a49_15) 0.992121;
(present, absent, active, present, a200_50) 0.964336;
(present, present, absent, absent, a14_0) 1.0027;
(present, present, absent, absent, a49_15) 0.952526;
(present, present, absent, absent, a200_50) 0.952492;
(present, present, absent, present, a14_0) 0.979709;
(present, present, absent, present, a49_15) 0.975365;
(present, present, absent, present, a200_50) 0.967945;
(present, present, persistent, absent, a14_0) 0.985262;
(present, present, persistent, absent, a49_15) 0.987242;
(present, present, persistent, absent, a200_50) 0.990117;
(present, present, persistent, present, a14_0) 0.980654;
(present, present, persistent, present, a49_15) 0.968242;
(present, present, persistent, present, a200_50) 0.985487;
(present, present, active, absent, a14_0) 0.970514;
(present, present, active, absent, a49_15) 0.973147;
(present, present, active, absent, a200_50) 0.973646;
(present, present, active, present, a14_0) 0.976696;
(present, present, active, present, a49_15) 0.997639;
(present, present, active, present, a200_50) 0.988299;
}
probability ( Cirrhosis, Steatosis, THepatitis, RHepatitis, ChHepatitis, alt ) {
(absent, absent, absent, absent, absent, a34_0) 1.63164;
(absent, absent, absent, absent, absent, a99_35) 1.6751;
(absent, absent, absent, absent, absent, a199_100) 0.780864;
(absent, absent, absent, absent, absent, a850_200) 0.37726;
(absent, absent, absent, absent, persistent, a34_0) 1.2428;
(absent, absent, absent, absent, persistent, a99_35) 1.07302;
(absent, absent, absent, absent, persistent, a199_100) 0.982143;
(absent, absent, absent, absent, persistent, a850_200) 0.914919;
(absent, absent, absent, absent, active, a34_0) 1.01876;
(absent, absent, absent, absent, active, a99_35) 1.25287;
(absent, absent, absent, absent, active, a199_100) 1.05827;
(absent, absent, absent, absent, active, a850_200) 0.944407;
(absent, absent, absent, present, absent, a34_0) 0.987138;
(absent, absent, absent, present, absent, a99_35) 1.06207;
(absent, absent, absent, present, absent, a199_100) 1.00346;
(absent, absent, absent, present, absent, a850_200) 0.925722;
(absent, absent, absent, present, persistent, a34_0) 1.00656;
(absent, absent, absent, present, persistent, a99_35) 1.00322;
(absent, absent, absent, present, persistent, a199_100) 0.993078;
(absent, absent, absent, present, persistent, a850_200) 0.994879;
(absent, absent, absent, present, active, a34_0) 0.996227;
(absent, absent, absent, present, active, a99_35) 0.99551;
(absent, absent, absent, present, active, a199_100) 0.99276;
(absent, absent, absent, present, active, a850_200) 0.985404;
(absent, absent, present, absent, absent, a34_0) 1.10152;
(absent, absent, present, absent, absent, a99_35) 1.0553;
(absent, absent, present, absent, absent, a199_100) 0.942358;
(absent, absent, present, absent, absent, a850_200) 0.93117;
(absent, absent, present, absent, persistent, a34_0) 1.00872;
(absent, absent, present, absent, persistent, a99_35) 1.00245;
(absent, absent, present, absent, persistent, a199_100) 0.999994;
(absent, absent, present, absent, persistent, a850_200) 0.99647;
(absent, absent, present, absent, active, a34_0) 1.00199;
(absent, absent, present, absent, active, a99_35) 1.00804;
(absent, absent, present, absent, active, a199_100) 1.00097;
(absent, absent, present, absent, active, a850_200) 0.989236;
(absent, absent, present, present, absent, a34_0) 0.965596;
(absent, absent, present, present, absent, a99_35) 0.980017;
(absent, absent, present, present, absent, a199_100) 0.972072;
(absent, absent, present, present, absent, a850_200) 0.984732;
(absent, absent, present, present, persistent, a34_0) 0.992365;
(absent, absent, present, present, persistent, a99_35) 0.993249;
(absent, absent, present, present, persistent, a199_100) 0.997515;
(absent, absent, present, present, persistent, a850_200) 0.995026;
(absent, absent, present, present, active, a34_0) 0.987785;
(absent, absent, present, present, active, a99_35) 1.00041;
(absent, absent, present, present, active, a199_100) 0.992026;
(absent, absent, present, present, active, a850_200) 0.997174;
(absent, present, absent, absent, absent, a34_0) 1.10543;
(absent, present, absent, absent, absent, a99_35) 1.07575;
(absent, present, absent, absent, absent, a199_100) 0.92246;
(absent, present, absent, absent, absent, a850_200) 0.889888;
(absent, present, absent, absent, persistent, a34_0) 1.00452;
(absent, present, absent, absent, persistent, a99_35) 1.00174;
(absent, present, absent, absent, persistent, a199_100) 0.990626;
(absent, present, absent, absent, persistent, a850_200) 0.992617;
(absent, present, absent, absent, active, a34_0) 0.987641;
(absent, present, absent, absent, active, a99_35) 1.00662;
(absent, present, absent, absent, active, a199_100) 0.97453;
(absent, present, absent, absent, active, a850_200) 0.994386;
(absent, present, absent, present, absent, a34_0) 0.997848;
(absent, present, absent, present, absent, a99_35) 1.00201;
(absent, present, absent, present, absent, a199_100) 0.989011;
(absent, present, absent, present, absent, a850_200) 0.9859;
(absent, present, absent, present, persistent, a34_0) 0.99985;
(absent, present, absent, present, persistent, a99_35) 0.997084;
(absent, present, absent, present, persistent, a199_100) 0.993903;
(absent, present, absent, present, persistent, a850_200) 0.997318;
(absent, present, absent, present, active, a34_0) 0.992163;
(absent, present, absent, present, active, a99_35) 0.995867;
(absent, present, absent, present, active, a199_100) 0.998495;
(absent, present, absent, present, active, a850_200) 0.994881;
(absent, present, present, absent, absent, a34_0) 1.00335;
(absent, present, present, absent, absent, a99_35) 1.00354;
(absent, present, present, absent, absent, a199_100) 0.992562;
(absent, present, present, absent, absent, a850_200) 0.993563;
(absent, present, present, absent, persistent, a34_0) 0.997198;
(absent, present, present, absent, persistent, a99_35) 0.994843;
(absent, present, present, absent, persistent, a199_100) 0.996474;
(absent, present, present, absent, persistent, a850_200) 0.997304;
(absent, present, present, absent, active, a34_0) 1.00122;
(absent, present, present, absent, active, a99_35) 1.00084;
(absent, present, present, absent, active, a199_100) 1.00042;
(absent, present, present, absent, active, a850_200) 0.998881;
(absent, present, present, present, absent, a34_0) 0.997298;
(absent, present, present, present, absent, a99_35) 0.997112;
(absent, present, present, present, absent, a199_100) 0.997144;
(absent, present, present, present, absent, a850_200) 0.987479;
(absent, present, present, present, persistent, a34_0) 0.989357;
(absent, present, present, present, persistent, a99_35) 0.998601;
(absent, present, present, present, persistent, a199_100) 0.996606;
(absent, present, present, present, persistent, a850_200) 0.992925;
(absent, present, present, present, active, a34_0) 0.995837;
(absent, present, present, present, active, a99_35) 1.00004;
(absent, present, present, present, active, a199_100) 0.995809;
(absent, present, present, present, active, a850_200) 0.996321;
(compensate, absent, absent, absent, absent, a34_0) 0.996709;
(compensate, absent, absent, absent, absent, a99_35) 0.998743;
(compensate, absent, absent, absent, absent, a199_100) 0.999898;
(compensate, absent, absent, absent, absent, a850_200) 0.983108;
(compensate, absent, absent, absent, persistent, a34_0) 1.00165;
(compensate, absent, absent, absent, persistent, a99_35) 1.00218;
(compensate, absent, absent, absent, persistent, a199_100) 1.00101;
(compensate, absent, absent, absent, persistent, a850_200) 1.00021;
(compensate, absent, absent, absent, active, a34_0) 1.02184;
(compensate, absent, absent, absent, active, a99_35) 1.03692;
(compensate, absent, absent, absent, active, a199_100) 1.01848;
(compensate, absent, absent, absent, active, a850_200) 1.00442;
(compensate, absent, absent, present, absent, a34_0) 0.991988;
(compensate, absent, absent, present, absent, a99_35) 0.999696;
(compensate, absent, absent, present, absent, a199_100) 0.998643;
(compensate, absent, absent, present, absent, a850_200) 0.997816;
(compensate, absent, absent, present, persistent, a34_0) 1.0001;
(compensate, absent, absent, present, persistent, a99_35) 1.00006;
(compensate, absent, absent, present, persistent, a199_100) 1.00003;
(compensate, absent, absent, present, persistent, a850_200) 1;
(compensate, absent, absent, present, active, a34_0) 0.996052;
(compensate, absent, absent, present, active, a99_35) 0.993404;
(compensate, absent, absent, present, active, a199_100) 0.997364;
(compensate, absent, absent, present, active, a850_200) 1.00018;
(compensate, absent, present, absent, absent, a34_0) 0.991364;
(compensate, absent, present, absent, absent, a99_35) 0.997242;
(compensate, absent, present, absent, absent, a199_100) 0.992016;
(compensate, absent, present, absent, absent, a850_200) 0.996207;
(compensate, absent, present, absent, persistent, a34_0) 1.00014;
(compensate, absent, present, absent, persistent, a99_35) 1.00006;
(compensate, absent, present, absent, persistent, a199_100) 1.00003;
(compensate, absent, present, absent, persistent, a850_200) 0.997204;
(compensate, absent, present, absent, active, a34_0) 1.00009;
(compensate, absent, present, absent, active, a99_35) 1.00177;
(compensate, absent, present, absent, active, a199_100) 0.999572;
(compensate, absent, present, absent, active, a850_200) 0.997639;
(compensate, absent, present, present, absent, a34_0) 0.988481;
(compensate, absent, present, present, absent, a99_35) 0.989371;
(compensate, absent, present, present, absent, a199_100) 0.997204;
(compensate, absent, present, present, absent, a850_200) 0.998216;
(compensate, absent, present, present, persistent, a34_0) 0.997204;
(compensate, absent, present, present, persistent, a99_35) 1;
(compensate, absent, present, present, persistent, a199_100) 1;
(compensate, absent, present, present, persistent, a850_200) 0.9992;
(compensate, absent, present, present, active, a34_0) 1.00001;
(compensate, absent, present, present, active, a99_35) 0.99736;
(compensate, absent, present, present, active, a199_100) 1;
(compensate, absent, present, present, active, a850_200) 0.996407;
(compensate, present, absent, absent, absent, a34_0) 1.05558;
(compensate, present, absent, absent, absent, a99_35) 1.05276;
(compensate, present, absent, absent, absent, a199_100) 1.00866;
(compensate, present, absent, absent, absent, a850_200) 0.997202;
(compensate, present, absent, absent, persistent, a34_0) 1.00439;
(compensate, present, absent, absent, persistent, a99_35) 1.0028;
(compensate, present, absent, absent, persistent, a199_100) 0.992209;
(compensate, present, absent, absent, persistent, a850_200) 0.998383;
(compensate, present, absent, absent, active, a34_0) 1.01044;
(compensate, present, absent, absent, active, a99_35) 1.00335;
(compensate, present, absent, absent, active, a199_100) 1.00036;
(compensate, present, absent, absent, active, a850_200) 1.00017;
(compensate, present, absent, present, absent, a34_0) 0.993136;
(compensate, present, absent, present, absent, a99_35) 0.998122;
(compensate, present, absent, present, absent, a199_100) 0.995315;
(compensate, present, absent, present, absent, a850_200) 0.998915;
(compensate, present, absent, present, persistent, a34_0) 0.996803;
(compensate, present, absent, present, persistent, a99_35) 0.998214;
(compensate, present, absent, present, persistent, a199_100) 0.993933;
(compensate, present, absent, present, persistent, a850_200) 0.998102;
(compensate, present, absent, present, active, a34_0) 0.998783;
(compensate, present, absent, present, active, a99_35) 0.993358;
(compensate, present, absent, present, active, a199_100) 0.99234;
(compensate, present, absent, present, active, a850_200) 0.994499;
(compensate, present, present, absent, absent, a34_0) 1.00094;
(compensate, present, present, absent, absent, a99_35) 0.994215;
(compensate, present, present, absent, absent, a199_100) 0.994155;
(compensate, present, present, absent, absent, a850_200) 0.998601;
(compensate, present, present, absent, persistent, a34_0) 0.998937;
(compensate, present, present, absent, persistent, a99_35) 0.990527;
(compensate, present, present, absent, persistent, a199_100) 0.993207;
(compensate, present, present, absent, persistent, a850_200) 0.994416;
(compensate, present, present, absent, active, a34_0) 0.999942;
(compensate, present, present, absent, active, a99_35) 0.993378;
(compensate, present, present, absent, active, a199_100) 0.995675;
(compensate, present, present, absent, active, a850_200) 0.995267;
(compensate, present, present, present, absent, a34_0) 0.993505;
(compensate, present, present, present, absent, a99_35) 0.996747;
(compensate, present, present, present, absent, a199_100) 0.997218;
(compensate, present, present, present, absent, a850_200) 0.996307;
(compensate, present, present, present, persistent, a34_0) 0.996307;
(compensate, present, present, present, persistent, a99_35) 0.999514;
(compensate, present, present, present, persistent, a199_100) 0.9995;
(compensate, present, present, present, persistent, a850_200) 0.997503;
(compensate, present, present, present, active, a34_0) 1.00003;
(compensate, present, present, present, active, a99_35) 0.996149;
(compensate, present, present, present, active, a199_100) 0.994913;
(compensate, present, present, present, active, a850_200) 0.992429;
(decompensate, absent, absent, absent, absent, a34_0) 0.980097;
(decompensate, absent, absent, absent, absent, a99_35) 0.974134;
(decompensate, absent, absent, absent, absent, a199_100) 0.954299;
(decompensate, absent, absent, absent, absent, a850_200) 0.978823;
(decompensate, absent, absent, absent, persistent, a34_0) 1.0051;
(decompensate, absent, absent, absent, persistent, a99_35) 0.996582;
(decompensate, absent, absent, absent, persistent, a199_100) 0.98709;
(decompensate, absent, absent, absent, persistent, a850_200) 0.998591;
(decompensate, absent, absent, absent, active, a34_0) 1.06594;
(decompensate, absent, absent, absent, active, a99_35) 1.09475;
(decompensate, absent, absent, absent, active, a199_100) 1.02665;
(decompensate, absent, absent, absent, active, a850_200) 1.00699;
(decompensate, absent, absent, present, absent, a34_0) 0.998713;
(decompensate, absent, absent, present, absent, a99_35) 0.999082;
(decompensate, absent, absent, present, absent, a199_100) 0.996975;
(decompensate, absent, absent, present, absent, a850_200) 0.994629;
(decompensate, absent, absent, present, persistent, a34_0) 0.996004;
(decompensate, absent, absent, present, persistent, a99_35) 0.995578;
(decompensate, absent, absent, present, persistent, a199_100) 0.997545;
(decompensate, absent, absent, present, persistent, a850_200) 1;
(decompensate, absent, absent, present, active, a34_0) 1.00013;
(decompensate, absent, absent, present, active, a99_35) 0.997838;
(decompensate, absent, absent, present, active, a199_100) 0.994282;
(decompensate, absent, absent, present, active, a850_200) 0.999906;
(decompensate, absent, present, absent, absent, a34_0) 0.998811;
(decompensate, absent, present, absent, absent, a99_35) 0.996032;
(decompensate, absent, present, absent, absent, a199_100) 0.997559;
(decompensate, absent, present, absent, absent, a850_200) 0.995538;
(decompensate, absent, present, absent, persistent, a34_0) 0.990284;
(decompensate, absent, present, absent, persistent, a99_35) 1.00024;
(decompensate, absent, present, absent, persistent, a199_100) 0.995652;
(decompensate, absent, present, absent, persistent, a850_200) 0.994955;
(decompensate, absent, present, absent, active, a34_0) 0.998032;
(decompensate, absent, present, absent, active, a99_35) 1.00063;
(decompensate, absent, present, absent, active, a199_100) 1.00075;
(decompensate, absent, present, absent, active, a850_200) 1.00064;
(decompensate, absent, present, present, absent, a34_0) 0.997204;
(decompensate, absent, present, present, absent, a99_35) 0.997717;
(decompensate, absent, present, present, absent, a199_100) 0.986196;
(decompensate, absent, present, present, absent, a850_200) 1;
(decompensate, absent, present, present, persistent, a34_0) 0.993038;
(decompensate, absent, present, present, persistent, a99_35) 0.998601;
(decompensate, absent, present, present, persistent, a199_100) 0.991536;
(decompensate, absent, present, present, persistent, a850_200) 0.995809;
(decompensate, absent, present, present, active, a34_0) 0.994869;
(decompensate, absent, present, present, active, a99_35) 0.993648;
(decompensate, absent, present, present, active, a199_100) 0.998943;
(decompensate, absent, present, present, active, a850_200) 0.994714;
(decompensate, present, absent, absent, absent, a34_0) 1.16673;
(decompensate, present, absent, absent, absent, a99_35) 1.15684;
(decompensate, present, absent, absent, absent, a199_100) 1.02389;
(decompensate, present, absent, absent, absent, a850_200) 0.998831;
(decompensate, present, absent, absent, persistent, a34_0) 1.00812;
(decompensate, present, absent, absent, persistent, a99_35) 1.00443;
(decompensate, present, absent, absent, persistent, a199_100) 0.999246;
(decompensate, present, absent, absent, persistent, a850_200) 0.998441;
(decompensate, present, absent, absent, active, a34_0) 1.01772;
(decompensate, present, absent, absent, active, a99_35) 1.01878;
(decompensate, present, absent, absent, active, a199_100) 1.01115;
(decompensate, present, absent, absent, active, a850_200) 1.00299;
(decompensate, present, absent, present, absent, a34_0) 1.00248;
(decompensate, present, absent, present, absent, a99_35) 1.00332;
(decompensate, present, absent, present, absent, a199_100) 0.99938;
(decompensate, present, absent, present, absent, a850_200) 0.996662;
(decompensate, present, absent, present, persistent, a34_0) 0.998783;
(decompensate, present, absent, present, persistent, a99_35) 0.997056;
(decompensate, present, absent, present, persistent, a199_100) 0.992796;
(decompensate, present, absent, present, persistent, a850_200) 0.992272;
(decompensate, present, absent, present, active, a34_0) 0.992221;
(decompensate, present, absent, present, active, a99_35) 0.982865;
(decompensate, present, absent, present, active, a199_100) 0.998124;
(decompensate, present, absent, present, active, a850_200) 1.00011;
(decompensate, present, present, absent, absent, a34_0) 1.00569;
(decompensate, present, present, absent, absent, a99_35) 0.994392;
(decompensate, present, present, absent, absent, a199_100) 0.998116;
(decompensate, present, present, absent, absent, a850_200) 0.997796;
(decompensate, present, present, absent, persistent, a34_0) 0.998961;
(decompensate, present, present, absent, persistent, a99_35) 0.998064;
(decompensate, present, present, absent, persistent, a199_100) 0.996078;
(decompensate, present, present, absent, persistent, a850_200) 1.00003;
(decompensate, present, present, absent, active, a34_0) 0.994471;
(decompensate, present, present, absent, active, a99_35) 0.989363;
(decompensate, present, present, absent, active, a199_100) 0.993082;
(decompensate, present, present, absent, active, a850_200) 1.00027;
(decompensate, present, present, present, absent, a34_0) 0.998797;
(decompensate, present, present, present, absent, a99_35) 1.00029;
(decompensate, present, present, present, absent, a199_100) 0.998443;
(decompensate, present, present, present, absent, a850_200) 1;
(decompensate, present, present, present, persistent, a34_0) 0.99823;
(decompensate, present, present, present, persistent, a99_35) 0.996805;
(decompensate, present, present, present, persistent, a199_100) 0.987578;
(decompensate, present, present, present, persistent, a850_200) 0.993422;
(decompensate, present, present, present, active, a34_0) 0.997104;
(decompensate, present, present, present, active, a99_35) 0.99813;
(decompensate, present, present, present, active, a199_100) 0.999242;
(decompensate, present, present, present, active, a850_200) 0.99642;
}
probability ( Cirrhosis, Steatosis, THepatitis, RHepatitis, ChHepatitis, ast ) {
(absent, absent, absent, absent, absent, a39_0) 1.18812;
(absent, absent, absent, absent, absent, a149_40) 1.96957;
(absent, absent, absent, absent, absent, a399_150) 1.06399;
(absent, absent, absent, absent, absent, a700_400) 0.323381;
(absent, absent, absent, absent, persistent, a39_0) 1.20465;
(absent, absent, absent, absent, persistent, a149_40) 1.08996;
(absent, absent, absent, absent, persistent, a399_150) 1.00181;
(absent, absent, absent, absent, persistent, a700_400) 0.910973;
(absent, absent, absent, absent, active, a39_0) 1.06972;
(absent, absent, absent, absent, active, a149_40) 1.29243;
(absent, absent, absent, absent, active, a399_150) 1.03533;
(absent, absent, absent, absent, active, a700_400) 0.891205;
(absent, absent, absent, present, absent, a39_0) 0.990216;
(absent, absent, absent, present, absent, a149_40) 1.10121;
(absent, absent, absent, present, absent, a399_150) 0.95317;
(absent, absent, absent, present, absent, a700_400) 0.937002;
(absent, absent, absent, present, persistent, a39_0) 0.997888;
(absent, absent, absent, present, persistent, a149_40) 1.00378;
(absent, absent, absent, present, persistent, a399_150) 1.00018;
(absent, absent, absent, present, persistent, a700_400) 0.995837;
(absent, absent, absent, present, active, a39_0) 0.987712;
(absent, absent, absent, present, active, a149_40) 0.998218;
(absent, absent, absent, present, active, a399_150) 0.996767;
(absent, absent, absent, present, active, a700_400) 0.987219;
(absent, absent, present, absent, absent, a39_0) 1.10752;
(absent, absent, present, absent, absent, a149_40) 1.05603;
(absent, absent, present, absent, absent, a399_150) 0.964409;
(absent, absent, present, absent, absent, a700_400) 0.904321;
(absent, absent, present, absent, persistent, a39_0) 1.00911;
(absent, absent, present, absent, persistent, a149_40) 1.00741;
(absent, absent, present, absent, persistent, a399_150) 0.998685;
(absent, absent, present, absent, persistent, a700_400) 0.992484;
(absent, absent, present, absent, active, a39_0) 0.998683;
(absent, absent, present, absent, active, a149_40) 1.011;
(absent, absent, present, absent, active, a399_150) 1.00232;
(absent, absent, present, absent, active, a700_400) 0.988283;
(absent, absent, present, present, absent, a39_0) 0.981468;
(absent, absent, present, present, absent, a149_40) 0.986605;
(absent, absent, present, present, absent, a399_150) 0.967994;
(absent, absent, present, present, absent, a700_400) 0.966392;
(absent, absent, present, present, persistent, a39_0) 0.996857;
(absent, absent, present, present, persistent, a149_40) 0.994467;
(absent, absent, present, present, persistent, a399_150) 0.991818;
(absent, absent, present, present, persistent, a700_400) 0.995013;
(absent, absent, present, present, active, a39_0) 0.998365;
(absent, absent, present, present, active, a149_40) 0.994237;
(absent, absent, present, present, active, a399_150) 0.987829;
(absent, absent, present, present, active, a700_400) 0.996947;
(absent, present, absent, absent, absent, a39_0) 1.1242;
(absent, present, absent, absent, absent, a149_40) 1.1204;
(absent, present, absent, absent, absent, a399_150) 0.911336;
(absent, present, absent, absent, absent, a700_400) 0.850417;
(absent, present, absent, absent, persistent, a39_0) 1.01214;
(absent, present, absent, absent, persistent, a149_40) 1.00435;
(absent, present, absent, absent, persistent, a399_150) 0.994304;
(absent, present, absent, absent, persistent, a700_400) 0.978953;
(absent, present, absent, absent, active, a39_0) 0.981407;
(absent, present, absent, absent, active, a149_40) 1.00828;
(absent, present, absent, absent, active, a399_150) 0.997968;
(absent, present, absent, absent, active, a700_400) 0.975597;
(absent, present, absent, present, absent, a39_0) 0.991996;
(absent, present, absent, present, absent, a149_40) 0.999748;
(absent, present, absent, present, absent, a399_150) 0.989136;
(absent, present, absent, present, absent, a700_400) 0.993833;
(absent, present, absent, present, persistent, a39_0) 0.997184;
(absent, present, absent, present, persistent, a149_40) 0.999264;
(absent, present, absent, present, persistent, a399_150) 0.998385;
(absent, present, absent, present, persistent, a700_400) 0.993322;
(absent, present, absent, present, active, a39_0) 0.996197;
(absent, present, absent, present, active, a149_40) 0.998325;
(absent, present, absent, present, active, a399_150) 0.991871;
(absent, present, absent, present, active, a700_400) 0.995013;
(absent, present, present, absent, absent, a39_0) 1.00807;
(absent, present, present, absent, absent, a149_40) 1.00776;
(absent, present, present, absent, absent, a399_150) 0.990179;
(absent, present, present, absent, absent, a700_400) 0.987139;
(absent, present, present, absent, persistent, a39_0) 0.997443;
(absent, present, present, absent, persistent, a149_40) 0.993889;
(absent, present, present, absent, persistent, a399_150) 0.998783;
(absent, present, present, absent, persistent, a700_400) 0.995709;
(absent, present, present, absent, active, a39_0) 1.00047;
(absent, present, present, absent, active, a149_40) 1.00167;
(absent, present, present, absent, active, a399_150) 1.00053;
(absent, present, present, absent, active, a700_400) 0.998685;
(absent, present, present, present, absent, a39_0) 0.999208;
(absent, present, present, present, absent, a149_40) 0.998779;
(absent, present, present, present, absent, a399_150) 0.983887;
(absent, present, present, present, absent, a700_400) 0.997204;
(absent, present, present, present, persistent, a39_0) 0.998301;
(absent, present, present, present, persistent, a149_40) 0.992727;
(absent, present, present, present, persistent, a399_150) 0.992727;
(absent, present, present, present, persistent, a700_400) 0.99372;
(absent, present, present, present, active, a39_0) 0.996933;
(absent, present, present, present, active, a149_40) 0.998629;
(absent, present, present, present, active, a399_150) 0.993052;
(absent, present, present, present, active, a700_400) 0.9994;
(compensate, absent, absent, absent, absent, a39_0) 0.994853;
(compensate, absent, absent, absent, absent, a149_40) 1.00358;
(compensate, absent, absent, absent, absent, a399_150) 0.995737;
(compensate, absent, absent, absent, absent, a700_400) 0.984287;
(compensate, absent, absent, absent, persistent, a39_0) 1.00238;
(compensate, absent, absent, absent, persistent, a149_40) 1.0033;
(compensate, absent, absent, absent, persistent, a399_150) 0.999328;
(compensate, absent, absent, absent, persistent, a700_400) 1.00006;
(compensate, absent, absent, absent, active, a39_0) 1.02666;
(compensate, absent, absent, absent, active, a149_40) 1.04748;
(compensate, absent, absent, absent, active, a399_150) 1.00481;
(compensate, absent, absent, absent, active, a700_400) 1.00309;
(compensate, absent, absent, present, absent, a39_0) 0.998186;
(compensate, absent, absent, present, absent, a149_40) 0.996915;
(compensate, absent, absent, present, absent, a399_150) 0.994131;
(compensate, absent, absent, present, absent, a700_400) 0.998901;
(compensate, absent, absent, present, persistent, a39_0) 1.00007;
(compensate, absent, absent, present, persistent, a149_40) 1.00008;
(compensate, absent, absent, present, persistent, a399_150) 1.00003;
(compensate, absent, absent, present, persistent, a700_400) 1;
(compensate, absent, absent, present, active, a39_0) 0.999244;
(compensate, absent, absent, present, active, a149_40) 0.992223;
(compensate, absent, absent, present, active, a399_150) 0.9955;
(compensate, absent, absent, present, active, a700_400) 1.00004;
(compensate, absent, present, absent, absent, a39_0) 0.996002;
(compensate, absent, present, absent, absent, a149_40) 0.992653;
(compensate, absent, present, absent, absent, a399_150) 0.99087;
(compensate, absent, present, absent, absent, a700_400) 0.997304;
(compensate, absent, present, absent, persistent, a39_0) 0.998685;
(compensate, absent, present, absent, persistent, a149_40) 1.00011;
(compensate, absent, present, absent, persistent, a399_150) 0.998629;
(compensate, absent, present, absent, persistent, a700_400) 1;
(compensate, absent, present, absent, active, a39_0) 1.00046;
(compensate, absent, present, absent, active, a149_40) 0.999676;
(compensate, absent, present, absent, active, a399_150) 0.998745;
(compensate, absent, present, absent, active, a700_400) 1.00018;
(compensate, absent, present, present, absent, a39_0) 0.996221;
(compensate, absent, present, present, absent, a149_40) 0.989583;
(compensate, absent, present, present, absent, a399_150) 0.998901;
(compensate, absent, present, present, absent, a700_400) 0.988566;
(compensate, absent, present, present, persistent, a39_0) 0.9992;
(compensate, absent, present, present, persistent, a149_40) 1;
(compensate, absent, present, present, persistent, a399_150) 1;
(compensate, absent, present, present, persistent, a700_400) 0.997204;
(compensate, absent, present, present, active, a39_0) 0.998629;
(compensate, absent, present, present, active, a149_40) 0.998144;
(compensate, absent, present, present, active, a399_150) 0.997802;
(compensate, absent, present, present, active, a700_400) 0.9992;
(compensate, present, absent, absent, absent, a39_0) 1.05433;
(compensate, present, absent, absent, absent, a149_40) 1.06887;
(compensate, present, absent, absent, absent, a399_150) 1.00535;
(compensate, present, absent, absent, absent, a700_400) 0.986573;
(compensate, present, absent, absent, persistent, a39_0) 0.995399;
(compensate, present, absent, absent, persistent, a149_40) 1.00473;
(compensate, present, absent, absent, persistent, a399_150) 0.99823;
(compensate, present, absent, absent, persistent, a700_400) 0.9994;
(compensate, present, absent, absent, active, a39_0) 1.00478;
(compensate, present, absent, absent, active, a149_40) 1.00643;
(compensate, present, absent, absent, active, a399_150) 1.00348;
(compensate, present, absent, absent, active, a700_400) 0.999608;
(compensate, present, absent, present, absent, a39_0) 0.996375;
(compensate, present, absent, present, absent, a149_40) 0.992602;
(compensate, present, absent, present, absent, a399_150) 0.997013;
(compensate, present, absent, present, absent, a700_400) 0.9995;
(compensate, present, absent, present, persistent, a39_0) 0.994883;
(compensate, present, absent, present, persistent, a149_40) 0.995423;
(compensate, present, absent, present, persistent, a399_150) 0.996747;
(compensate, present, absent, present, persistent, a700_400) 1;
(compensate, present, absent, present, active, a39_0) 0.995405;
(compensate, present, absent, present, active, a149_40) 0.993982;
(compensate, present, absent, present, active, a399_150) 0.993221;
(compensate, present, absent, present, active, a700_400) 0.996363;
(compensate, present, present, absent, absent, a39_0) 1.00279;
(compensate, present, present, absent, absent, a149_40) 0.999414;
(compensate, present, present, absent, absent, a399_150) 0.991001;
(compensate, present, present, absent, absent, a700_400) 0.994728;
(compensate, present, present, absent, persistent, a39_0) 0.994012;
(compensate, present, present, absent, persistent, a149_40) 0.994666;
(compensate, present, present, absent, persistent, a399_150) 0.99179;
(compensate, present, present, absent, persistent, a700_400) 0.996606;
(compensate, present, present, absent, active, a39_0) 0.98981;
(compensate, present, present, absent, active, a149_40) 0.999282;
(compensate, present, present, absent, active, a399_150) 0.998311;
(compensate, present, present, absent, active, a700_400) 0.996875;
(compensate, present, present, present, absent, a39_0) 0.999284;
(compensate, present, present, present, absent, a149_40) 0.988918;
(compensate, present, present, present, absent, a399_150) 0.998901;
(compensate, present, present, present, absent, a700_400) 0.996705;
(compensate, present, present, present, persistent, a39_0) 0.997018;
(compensate, present, present, present, persistent, a149_40) 0.996905;
(compensate, present, present, present, persistent, a399_150) 0.998901;
(compensate, present, present, present, persistent, a700_400) 1;
(compensate, present, present, present, active, a39_0) 0.993734;
(compensate, present, present, present, active, a149_40) 0.999442;
(compensate, present, present, present, active, a399_150) 0.995823;
(compensate, present, present, present, active, a700_400) 0.994515;
(decompensate, absent, absent, absent, absent, a39_0) 0.968282;
(decompensate, absent, absent, absent, absent, a149_40) 0.973015;
(decompensate, absent, absent, absent, absent, a399_150) 0.968329;
(decompensate, absent, absent, absent, absent, a700_400) 0.977536;
(decompensate, absent, absent, absent, persistent, a39_0) 0.999804;
(decompensate, absent, absent, absent, persistent, a149_40) 1.00049;
(decompensate, absent, absent, absent, persistent, a399_150) 0.989086;
(decompensate, absent, absent, absent, persistent, a700_400) 0.997942;
(decompensate, absent, absent, absent, active, a39_0) 1.04661;
(decompensate, absent, absent, absent, active, a149_40) 1.10881;
(decompensate, absent, absent, absent, active, a399_150) 1.0357;
(decompensate, absent, absent, absent, active, a700_400) 1.00374;
(decompensate, absent, absent, present, absent, a39_0) 0.997003;
(decompensate, absent, absent, present, absent, a149_40) 0.992963;
(decompensate, absent, absent, present, absent, a399_150) 0.999442;
(decompensate, absent, absent, present, absent, a700_400) 1;
(decompensate, absent, absent, present, persistent, a39_0) 0.995365;
(decompensate, absent, absent, present, persistent, a149_40) 0.997571;
(decompensate, absent, absent, present, persistent, a399_150) 0.998186;
(decompensate, absent, absent, present, persistent, a700_400) 0.998002;
(decompensate, absent, absent, present, active, a39_0) 0.996887;
(decompensate, absent, absent, present, active, a149_40) 1.00133;
(decompensate, absent, absent, present, active, a399_150) 0.997342;
(decompensate, absent, absent, present, active, a700_400) 0.99659;
(decompensate, absent, present, absent, absent, a39_0) 0.997072;
(decompensate, absent, present, absent, absent, a149_40) 0.996373;
(decompensate, absent, present, absent, absent, a399_150) 0.994499;
(decompensate, absent, present, absent, absent, a700_400) 1;
(decompensate, absent, present, absent, persistent, a39_0) 0.998138;
(decompensate, absent, present, absent, persistent, a149_40) 0.994979;
(decompensate, absent, present, absent, persistent, a399_150) 0.990601;
(decompensate, absent, present, absent, persistent, a700_400) 0.997403;
(decompensate, absent, present, absent, active, a39_0) 1.00182;
(decompensate, absent, present, absent, active, a149_40) 1.0016;
(decompensate, absent, present, absent, active, a399_150) 0.999088;
(decompensate, absent, present, absent, active, a700_400) 0.997557;
(decompensate, absent, present, present, absent, a39_0) 0.989753;
(decompensate, absent, present, present, absent, a149_40) 0.996919;
(decompensate, absent, present, present, absent, a399_150) 0.996407;
(decompensate, absent, present, present, absent, a700_400) 0.998002;
(decompensate, absent, present, present, persistent, a39_0) 0.992443;
(decompensate, absent, present, present, persistent, a149_40) 0.998801;
(decompensate, absent, present, present, persistent, a399_150) 0.990743;
(decompensate, absent, present, present, persistent, a700_400) 0.997005;
(decompensate, absent, present, present, active, a39_0) 0.993748;
(decompensate, absent, present, present, active, a149_40) 1.00008;
(decompensate, absent, present, present, active, a399_150) 0.993038;
(decompensate, absent, present, present, active, a700_400) 0.995311;
(decompensate, present, absent, absent, absent, a39_0) 1.17145;
(decompensate, present, absent, absent, absent, a149_40) 1.16819;
(decompensate, present, absent, absent, absent, a399_150) 1.01506;
(decompensate, present, absent, absent, absent, a700_400) 0.99371;
(decompensate, present, absent, absent, persistent, a39_0) 1.00958;
(decompensate, present, absent, absent, persistent, a149_40) 1.0021;
(decompensate, present, absent, absent, persistent, a399_150) 1.00172;
(decompensate, present, absent, absent, persistent, a700_400) 0.996847;
(decompensate, present, absent, absent, active, a39_0) 1.01948;
(decompensate, present, absent, absent, active, a149_40) 1.0267;
(decompensate, present, absent, absent, active, a399_150) 1.00582;
(decompensate, present, absent, absent, active, a700_400) 0.998789;
(decompensate, present, absent, present, absent, a39_0) 1.00289;
(decompensate, present, absent, present, absent, a149_40) 0.998339;
(decompensate, present, absent, present, absent, a399_150) 1.00058;
(decompensate, present, absent, present, absent, a700_400) 1.00003;
(decompensate, present, absent, present, persistent, a39_0) 0.996259;
(decompensate, present, absent, present, persistent, a149_40) 0.996586;
(decompensate, present, absent, present, persistent, a399_150) 0.996919;
(decompensate, present, absent, present, persistent, a700_400) 0.99114;
(decompensate, present, absent, present, active, a39_0) 0.992377;
(decompensate, present, absent, present, active, a149_40) 0.993064;
(decompensate, present, absent, present, active, a399_150) 0.991092;
(decompensate, present, absent, present, active, a700_400) 0.996705;
(decompensate, present, present, absent, absent, a39_0) 1.00402;
(decompensate, present, present, absent, absent, a149_40) 1.00376;
(decompensate, present, present, absent, absent, a399_150) 0.99475;
(decompensate, present, present, absent, absent, a700_400) 0.993477;
(decompensate, present, present, absent, persistent, a39_0) 0.999648;
(decompensate, present, present, absent, persistent, a149_40) 0.998947;
(decompensate, present, present, absent, persistent, a399_150) 0.997529;
(decompensate, present, present, absent, persistent, a700_400) 0.997005;
(decompensate, present, present, absent, active, a39_0) 0.993307;
(decompensate, present, present, absent, active, a149_40) 0.995811;
(decompensate, present, present, absent, active, a399_150) 0.989981;
(decompensate, present, present, absent, active, a700_400) 0.998072;
(decompensate, present, present, present, absent, a39_0) 1.00029;
(decompensate, present, present, present, absent, a149_40) 0.999668;
(decompensate, present, present, present, absent, a399_150) 0.998971;
(decompensate, present, present, present, absent, a700_400) 0.998601;
(decompensate, present, present, present, persistent, a39_0) 1;
(decompensate, present, present, present, persistent, a149_40) 0.993535;
(decompensate, present, present, present, persistent, a399_150) 0.988382;
(decompensate, present, present, present, persistent, a700_400) 0.994117;
(decompensate, present, present, present, active, a39_0) 0.997346;
(decompensate, present, present, present, active, a149_40) 1.00001;
(decompensate, present, present, present, active, a399_150) 0.997617;
(decompensate, present, present, present, active, a700_400) 0.995922;
}
probability ( gallstones, amylase ) {
(absent, a299_0) 8.31607;
(absent, a499_300) 0.382045;
(absent, a1400_500) 0.314478;
(present, a299_0) 2.45668;
(present, a499_300) 0.678192;
(present, a1400_500) 0.600724;
}
probability ( Hyperbilirubinemia, ChHepatitis, Steatosis, RHepatitis, THepatitis, PBC, ggtp ) {
(absent, absent, absent, absent, absent, absent, a9_0) 2.66226;
(absent, absent, absent, absent, absent, absent, a29_10) 0.733267;
(absent, absent, absent, absent, absent, absent, a69_30) 0.573336;
(absent, absent, absent, absent, absent, absent, a640_70) 0.573092;
(absent, absent, absent, absent, absent, present, a9_0) 1.40819;
(absent, absent, absent, absent, absent, present, a29_10) 0.872648;
(absent, absent, absent, absent, absent, present, a69_30) 1.10017;
(absent, absent, absent, absent, absent, present, a640_70) 1.01168;
(absent, absent, absent, absent, present, absent, a9_0) 1.15746;
(absent, absent, absent, absent, present, absent, a29_10) 0.971026;
(absent, absent, absent, absent, present, absent, a69_30) 0.955258;
(absent, absent, absent, absent, present, absent, a640_70) 0.979709;
(absent, absent, absent, absent, present, present, a9_0) 1.01233;
(absent, absent, absent, absent, present, present, a29_10) 0.996654;
(absent, absent, absent, absent, present, present, a69_30) 0.997866;
(absent, absent, absent, absent, present, present, a640_70) 0.998527;
(absent, absent, absent, present, absent, absent, a9_0) 1.03973;
(absent, absent, absent, present, absent, absent, a29_10) 0.970925;
(absent, absent, absent, present, absent, absent, a69_30) 0.968311;
(absent, absent, absent, present, absent, absent, a640_70) 0.970215;
(absent, absent, absent, present, absent, present, a9_0) 1.03077;
(absent, absent, absent, present, absent, present, a29_10) 1.00065;
(absent, absent, absent, present, absent, present, a69_30) 1.00669;
(absent, absent, absent, present, absent, present, a640_70) 0.995757;
(absent, absent, absent, present, present, absent, a9_0) 0.98459;
(absent, absent, absent, present, present, absent, a29_10) 0.98907;
(absent, absent, absent, present, present, absent, a69_30) 0.982582;
(absent, absent, absent, present, present, absent, a640_70) 0.988985;
(absent, absent, absent, present, present, present, a9_0) 0.99046;
(absent, absent, absent, present, present, present, a29_10) 0.997338;
(absent, absent, absent, present, present, present, a69_30) 0.991296;
(absent, absent, absent, present, present, present, a640_70) 0.991645;
(absent, absent, present, absent, absent, absent, a9_0) 1.38622;
(absent, absent, present, absent, absent, absent, a29_10) 1.01257;
(absent, absent, present, absent, absent, absent, a69_30) 0.961355;
(absent, absent, present, absent, absent, absent, a640_70) 0.995528;
(absent, absent, present, absent, absent, present, a9_0) 1.10158;
(absent, absent, present, absent, absent, present, a29_10) 1.01747;
(absent, absent, present, absent, absent, present, a69_30) 1.04947;
(absent, absent, present, absent, absent, present, a640_70) 1.02874;
(absent, absent, present, absent, present, absent, a9_0) 1.01417;
(absent, absent, present, absent, present, absent, a29_10) 0.995124;
(absent, absent, present, absent, present, absent, a69_30) 0.992675;
(absent, absent, present, absent, present, absent, a640_70) 0.996596;
(absent, absent, present, absent, present, present, a9_0) 1.00692;
(absent, absent, present, absent, present, present, a29_10) 1.00131;
(absent, absent, present, absent, present, present, a69_30) 1.00122;
(absent, absent, present, absent, present, present, a640_70) 1.00439;
(absent, absent, present, present, absent, absent, a9_0) 1.00961;
(absent, absent, present, present, absent, absent, a29_10) 0.997896;
(absent, absent, present, present, absent, absent, a69_30) 0.994354;
(absent, absent, present, present, absent, absent, a640_70) 0.99952;
(absent, absent, present, present, absent, present, a9_0) 0.999532;
(absent, absent, present, present, absent, present, a29_10) 0.99724;
(absent, absent, present, present, absent, present, a69_30) 1.00117;
(absent, absent, present, present, absent, present, a640_70) 1.00018;
(absent, absent, present, present, present, absent, a9_0) 0.999216;
(absent, absent, present, present, present, absent, a29_10) 0.993746;
(absent, absent, present, present, present, absent, a69_30) 0.996606;
(absent, absent, present, present, present, absent, a640_70) 0.994543;
(absent, absent, present, present, present, present, a9_0) 0.999208;
(absent, absent, present, present, present, present, a29_10) 1.00003;
(absent, absent, present, present, present, present, a69_30) 1.00011;
(absent, absent, present, present, present, present, a640_70) 1.00011;
(absent, persistent, absent, absent, absent, absent, a9_0) 1.19123;
(absent, persistent, absent, absent, absent, absent, a29_10) 1.02229;
(absent, persistent, absent, absent, absent, absent, a69_30) 0.942179;
(absent, persistent, absent, absent, absent, absent, a640_70) 0.967096;
(absent, persistent, absent, absent, absent, present, a9_0) 1.05564;
(absent, persistent, absent, absent, absent, present, a29_10) 1.01262;
(absent, persistent, absent, absent, absent, present, a69_30) 1.00935;
(absent, persistent, absent, absent, absent, present, a640_70) 1.00933;
(absent, persistent, absent, absent, present, absent, a9_0) 1.00996;
(absent, persistent, absent, absent, present, absent, a29_10) 0.992274;
(absent, persistent, absent, absent, present, absent, a69_30) 0.996656;
(absent, persistent, absent, absent, present, absent, a640_70) 0.996853;
(absent, persistent, absent, absent, present, present, a9_0) 1.00345;
(absent, persistent, absent, absent, present, present, a29_10) 0.996482;
(absent, persistent, absent, absent, present, present, a69_30) 0.998012;
(absent, persistent, absent, absent, present, present, a640_70) 0.995361;
(absent, persistent, absent, present, absent, absent, a9_0) 1.0059;
(absent, persistent, absent, present, absent, absent, a29_10) 1.00112;
(absent, persistent, absent, present, absent, absent, a69_30) 0.992705;
(absent, persistent, absent, present, absent, absent, a640_70) 0.994451;
